{"learner":{"attributes":{"scikit_learn":"{\"_estimator_type\": \"classifier\"}"},"feature_names":["gst_turnover_consistency_ratio","gst_compliance_score","upi_cashflow_volatility","utility_payment_ontime_pct","epfo_contribution_regularity_pct","avg_monthly_inflow_lakhs","overdraft_utilization_pct","bounce_rate_pct","gst_turnover_consistency_ratio_slope_3m","gst_turnover_consistency_ratio_vol_3m","gst_turnover_consistency_ratio_avg_3m","gst_turnover_consistency_ratio_slope_6m","gst_turnover_consistency_ratio_vol_6m","gst_turnover_consistency_ratio_avg_6m","gst_compliance_score_slope_3m","gst_compliance_score_vol_3m","gst_compliance_score_avg_3m","gst_compliance_score_slope_6m","gst_compliance_score_vol_6m","gst_compliance_score_avg_6m","upi_cashflow_volatility_slope_3m","upi_cashflow_volatility_vol_3m","upi_cashflow_volatility_avg_3m","upi_cashflow_volatility_slope_6m","upi_cashflow_volatility_vol_6m","upi_cashflow_volatility_avg_6m","utility_payment_ontime_pct_slope_3m","utility_payment_ontime_pct_vol_3m","utility_payment_ontime_pct_avg_3m","utility_payment_ontime_pct_slope_6m","utility_payment_ontime_pct_vol_6m","utility_payment_ontime_pct_avg_6m","epfo_contribution_regularity_pct_slope_3m","epfo_contribution_regularity_pct_vol_3m","epfo_contribution_regularity_pct_avg_3m","epfo_contribution_regularity_pct_slope_6m","epfo_contribution_regularity_pct_vol_6m","epfo_contribution_regularity_pct_avg_6m","avg_monthly_inflow_lakhs_slope_3m","avg_monthly_inflow_lakhs_vol_3m","avg_monthly_inflow_lakhs_avg_3m","avg_monthly_inflow_lakhs_slope_6m","avg_monthly_inflow_lakhs_vol_6m","avg_monthly_inflow_lakhs_avg_6m","overdraft_utilization_pct_slope_3m","overdraft_utilization_pct_vol_3m","overdraft_utilization_pct_avg_3m","overdraft_utilization_pct_slope_6m","overdraft_utilization_pct_vol_6m","overdraft_utilization_pct_avg_6m","bounce_rate_pct_slope_3m","bounce_rate_pct_vol_3m","bounce_rate_pct_avg_3m","bounce_rate_pct_slope_6m","bounce_rate_pct_vol_6m","bounce_rate_pct_avg_6m","loan_amount_lakhs","owner_age","gst_registered","existing_credit_lines","bureau_score","loan_type_code","business_type_code","vintage_bucket_code","borrower_category_code","bureau_score_missing","epfo_missing"],"feature_types":["float","float","float","float","float","float","float","float","float","float","float","float","float","float","float","float","float","float","float","float","float","float","float","float","float","float","float","float","float","float","float","float","float","float","float","float","float","float","float","float","float","float","float","float","float","float","float","float","float","float","float","float","float","float","float","float","float","int","int","int","float","int","int","int","int","int","int"],"gradient_booster":{"model":{"cats":{"enc":[],"feature_segments":[],"sorted_idx":[]},"gbtree_model_param":{"num_parallel_tree":"1","num_trees":"350"},"iteration_indptr":[0,1,2,3,4,5,6,7,8,9,10,11,12,13,14,15,16,17,18,19,20,21,22,23,24,25,26,27,28,29,30,31,32,33,34,35,36,37,38,39,40,41,42,43,44,45,46,47,48,49,50,51,52,53,54,55,56,57,58,59,60,61,62,63,64,65,66,67,68,69,70,71,72,73,74,75,76,77,78,79,80,81,82,83,84,85,86,87,88,89,90,91,92,93,94,95,96,97,98,99,100,101,102,103,104,105,106,107,108,109,110,111,112,113,114,115,116,117,118,119,120,121,122,123,124,125,126,127,128,129,130,131,132,133,134,135,136,137,138,139,140,141,142,143,144,145,146,147,148,149,150,151,152,153,154,155,156,157,158,159,160,161,162,163,164,165,166,167,168,169,170,171,172,173,174,175,176,177,178,179,180,181,182,183,184,185,186,187,188,189,190,191,192,193,194,195,196,197,198,199,200,201,202,203,204,205,206,207,208,209,210,211,212,213,214,215,216,217,218,219,220,221,222,223,224,225,226,227,228,229,230,231,232,233,234,235,236,237,238,239,240,241,242,243,244,245,246,247,248,249,250,251,252,253,254,255,256,257,258,259,260,261,262,263,264,265,266,267,268,269,270,271,272,273,274,275,276,277,278,279,280,281,282,283,284,285,286,287,288,289,290,291,292,293,294,295,296,297,298,299,300,301,302,303,304,305,306,307,308,309,310,311,312,313,314,315,316,317,318,319,320,321,322,323,324,325,326,327,328,329,330,331,332,333,334,335,336,337,338,339,340,341,342,343,344,345,346,347,348,349,350],"tree_info":[0,0,0,0,0,0,0,0,0,0,0,0,0,0,0,0,0,0,0,0,0,0,0,0,0,0,0,0,0,0,0,0,0,0,0,0,0,0,0,0,0,0,0,0,0,0,0,0,0,0,0,0,0,0,0,0,0,0,0,0,0,0,0,0,0,0,0,0,0,0,0,0,0,0,0,0,0,0,0,0,0,0,0,0,0,0,0,0,0,0,0,0,0,0,0,0,0,0,0,0,0,0,0,0,0,0,0,0,0,0,0,0,0,0,0,0,0,0,0,0,0,0,0,0,0,0,0,0,0,0,0,0,0,0,0,0,0,0,0,0,0,0,0,0,0,0,0,0,0,0,0,0,0,0,0,0,0,0,0,0,0,0,0,0,0,0,0,0,0,0,0,0,0,0,0,0,0,0,0,0,0,0,0,0,0,0,0,0,0,0,0,0,0,0,0,0,0,0,0,0,0,0,0,0,0,0,0,0,0,0,0,0,0,0,0,0,0,0,0,0,0,0,0,0,0,0,0,0,0,0,0,0,0,0,0,0,0,0,0,0,0,0,0,0,0,0,0,0,0,0,0,0,0,0,0,0,0,0,0,0,0,0,0,0,0,0,0,0,0,0,0,0,0,0,0,0,0,0,0,0,0,0,0,0,0,0,0,0,0,0,0,0,0,0,0,0,0,0,0,0,0,0,0,0,0,0,0,0,0,0,0,0,0,0,0,0,0,0,0,0,0,0,0,0,0,0,0,0,0,0,0,0,0,0,0,0,0,0,0,0,0,0,0,0,0,0,0,0,0,0],"trees":[{"base_weights":[-7.296445E-3,7.8484094E-1,-1.4749596E0,-8.7452166E-2,1.1573709E0,-4.6050597E-2,-1.7101033E0,3.895655E-1,-8.09664E-1,1.2652364E0,4.238502E-1,-6.297244E-1,4.4063413E-1,-1.2581627E0,-1.9385808E0,1.1151152E-3,4.4781774E-2,-5.5375945E-2,-1.2207595E-3,-4.143631E-2,6.472639E-2,3.4330815E-2,-1.4792784E-2,-7.3955886E-2,-1.5305071E-2,-1.0996627E-2,3.6848705E-2,-6.795052E-2,1.7347973E-3,-9.731924E-2,1.9927194E-2],"categories":[],"categories_nodes":[],"categories_segments":[],"categories_sizes":[],"default_left":[0,0,0,0,0,0,0,0,0,0,0,0,0,0,0,0,0,0,0,0,0,0,0,0,0,0,0,0,0,0,0],"id":0,"left_children":[1,3,5,7,9,11,13,15,17,19,21,23,25,27,29,-1,-1,-1,-1,-1,-1,-1,-1,-1,-1,-1,-1,-1,-1,-1,-1],"loss_changes":[5.0931566E4,9.245811E3,5.159668E3,2.9340212E3,1.576957E3,6.1698627E2,1.359168E3,9.5326996E2,7.922981E2,1.0671426E3,4.838626E2,2.7100977E2,2.3202199E2,5.7773145E2,1.6049219E2,0E0,0E0,0E0,0E0,0E0,0E0,0E0,0E0,0E0,0E0,0E0,0E0,0E0,0E0,0E0,0E0],"parents":[2147483647,0,0,1,1,2,2,3,3,4,4,5,5,6,6,7,7,8,8,9,9,10,10,11,11,12,12,13,13,14,14],"right_children":[2,4,6,8,10,12,14,16,18,20,22,24,26,28,30,-1,-1,-1,-1,-1,-1,-1,-1,-1,-1,-1,-1,-1,-1,-1,-1],"split_conditions":[7.3566666E1,1.0106667E1,7.863333E-1,8.01E-1,7.9766667E-1,9.583333E0,8.345E-1,3.8733333E-1,3.7933335E-1,6.6183334E1,7.436667E1,3.17E-1,5.2766666E1,4.1566667E-1,1.1815E1,1.1151152E-3,4.4781774E-2,-5.5375945E-2,-1.2207595E-3,-4.143631E-2,6.472639E-2,3.4330815E-2,-1.4792784E-2,-7.3955886E-2,-1.5305071E-2,-1.0996627E-2,3.6848705E-2,-6.795052E-2,1.7347973E-3,-9.731924E-2,1.9927194E-2],"split_indices":[28,52,10,0,10,52,13,22,22,37,19,22,46,22,55,0,0,0,0,0,0,0,0,0,0,0,0,0,0,0,0],"split_type":[0,0,0,0,0,0,0,0,0,0,0,0,0,0,0,0,0,0,0,0,0,0,0,0,0,0,0,0,0,0,0],"sum_hessian":[4.380668E4,2.8451242E4,1.53554375E4,8.514645E3,1.9936598E4,2.1700117E3,1.3185426E4,5.128051E3,3.3865938E3,1.73801E4,2.556498E3,9.8655597E2,1.1834558E3,4.429718E3,8.755708E3,2.972154E3,2.1558965E3,2.4549785E3,9.31615E2,2.3939088E2,1.7140709E4,1.872786E3,6.8371204E2,2.7119543E2,7.1536053E2,3.6657874E2,8.168771E2,4.109139E3,3.2057874E2,8.726734E3,2.8972721E1],"tree_param":{"num_deleted":"0","num_feature":"67","num_nodes":"31","size_leaf_vector":"1"}},{"base_weights":[6.1389804E-3,8.0408275E-1,-1.3339137E0,-1.3335662E-1,1.0795529E0,-4.8085028E-1,-1.7295038E0,1.8068422E-1,-9.043781E-1,1.216056E0,4.3895125E-1,-9.166271E-1,3.028139E-1,-1.3296053E0,-1.8453469E0,-3.43605E-2,2.0020507E-2,-1.3883528E-2,-5.903997E-2,6.2246718E-2,-2.9975165E-2,2.843701E-2,-4.7383405E-2,-2.505442E-2,-7.507592E-2,2.9093591E-2,-3.030471E-2,-7.098862E-2,-4.152828E-3,-9.360485E-2,-7.023338E-2],"categories":[],"categories_nodes":[],"categories_segments":[],"categories_sizes":[],"default_left":[0,0,0,0,0,0,0,0,0,0,0,0,0,0,0,0,0,0,0,0,0,0,0,0,0,0,0,0,0,0,0],"id":1,"left_children":[1,3,5,7,9,11,13,15,17,19,21,23,25,27,29,-1,-1,-1,-1,-1,-1,-1,-1,-1,-1,-1,-1,-1,-1,-1,-1],"loss_changes":[4.717609E4,7.141164E3,5.5559043E3,1.5210708E3,1.8683809E3,1.7822709E3,5.1866406E2,8.515919E2,3.146338E2,9.2445703E2,6.76464E2,8.143269E2,4.7350897E2,2.8428027E2,1.0016211E2,0E0,0E0,0E0,0E0,0E0,0E0,0E0,0E0,0E0,0E0,0E0,0E0,0E0,0E0,0E0,0E0],"parents":[2147483647,0,0,1,1,2,2,3,3,4,4,5,5,6,6,7,7,8,8,9,9,10,10,11,11,12,12,13,13,14,14],"right_children":[2,4,6,8,10,12,14,16,18,20,22,24,26,28,30,-1,-1,-1,-1,-1,-1,-1,-1,-1,-1,-1,-1,-1,-1,-1,-1],"split_conditions":[8.0016667E-1,3.5566667E-1,7.49E1,7.59E1,7.313333E1,1.0413333E1,8.3316666E-1,7.76E0,7.66E-1,5.223333E-1,7.6433334E1,7.6333336E1,7.5583336E1,4.08E-1,9.283334E0,-3.43605E-2,2.0020507E-2,-1.3883528E-2,-5.903997E-2,6.2246718E-2,-2.9975165E-2,2.843701E-2,-4.7383405E-2,-2.505442E-2,-7.507592E-2,2.9093591E-2,-3.030471E-2,-7.098862E-2,-4.152828E-3,-9.360485E-2,-7.023338E-2],"split_indices":[13,22,31,3,16,52,13,7,0,25,28,16,19,22,55,0,0,0,0,0,0,0,0,0,0,0,0,0,0,0,0],"split_type":[0,0,0,0,0,0,0,0,0,0,0,0,0,0,0,0,0,0,0,0,0,0,0,0,0,0,0,0,0,0,0],"sum_hessian":[4.411721E4,2.7652021E4,1.6465191E4,6.2803096E3,2.137171E4,5.217095E3,1.1248097E4,4.4631943E3,1.8171154E3,1.7616902E4,3.7548103E3,3.3526162E3,1.8644789E3,2.529289E3,8.718808E3,9.012449E2,3.5619495E3,5.567792E2,1.2603362E3,1.7341385E4,2.7551758E2,3.4339766E3,3.2083377E2,1.9611586E3,1.3914576E3,1.4267808E3,4.3769818E2,2.3585486E3,1.7074055E2,8.216786E3,5.0202145E2],"tree_param":{"num_deleted":"0","num_feature":"67","num_nodes":"31","size_leaf_vector":"1"}},{"base_weights":[-3.557274E-3,7.6088953E-1,-1.2612276E0,5.0953645E-3,1.0863738E0,-5.0995713E-1,-1.6802802E0,-6.081346E-1,3.603489E-1,-1.2497338E0,1.122643E0,1.620744E-1,-8.961587E-1,-1.7106347E0,-2.2212543E-1,-4.5760185E-4,-4.4584993E-2,2.7448652E-2,-2.5957158E-2,-8.708333E-2,4.795678E-2,6.707422E-2,4.175172E-2,-5.677103E-2,2.3073418E-2,-2.8791388E-2,-6.387615E-2,-7.123833E-2,-8.926283E-2,-5.0415404E-2,4.3308847E-2],"categories":[],"categories_nodes":[],"categories_segments":[],"categories_sizes":[],"default_left":[0,0,0,0,0,0,0,0,0,0,0,0,0,0,0,0,0,0,0,0,0,0,0,0,0,0,0,0,0,0,0],"id":2,"left_children":[1,3,5,7,9,11,13,15,17,19,21,23,25,27,29,-1,-1,-1,-1,-1,-1,-1,-1,-1,-1,-1,-1,-1,-1,-1,-1],"loss_changes":[4.197209E4,6.6794414E3,5.1949414E3,1.781017E3,1.6094688E3,1.5342653E3,4.6852734E2,5.093463E2,8.5903314E2,3.1746954E2,1.1752012E3,8.388394E2,4.5785034E2,2.1883398E2,1.8670004E2,0E0,0E0,0E0,0E0,0E0,0E0,0E0,0E0,0E0,0E0,0E0,0E0,0E0,0E0,0E0,0E0],"parents":[2147483647,0,0,1,1,2,2,3,3,4,4,5,5,6,6,7,7,8,8,9,9,10,10,11,11,12,12,13,13,14,14],"right_children":[2,4,6,8,10,12,14,16,18,20,22,24,26,28,30,-1,-1,-1,-1,-1,-1,-1,-1,-1,-1,-1,-1,-1,-1,-1,-1],"split_conditions":[7.995E-1,9.95E0,7.55E1,3.44E-1,5.5916668E1,7.003333E1,4.08E-1,7.59E-1,7.94E1,7.195E-1,6.796667E1,8.763333E0,7.6333336E1,7.786667E1,7.279286E-2,-4.5760185E-4,-4.4584993E-2,2.7448652E-2,-2.5957158E-2,-8.708333E-2,4.795678E-2,6.707422E-2,4.175172E-2,-5.677103E-2,2.3073418E-2,-2.8791388E-2,-6.387615E-2,-7.123833E-2,-8.926283E-2,-5.0415404E-2,4.3308847E-2],"split_indices":[13,55,31,2,31,28,22,0,1,13,16,55,16,31,12,0,0,0,0,0,0,0,0,0,0,0,0,0,0,0,0],"split_type":[0,0,0,0,0,0,0,0,0,0,0,0,0,0,0,0,0,0,0,0,0,0,0,0,0,0,0,0,0,0,0],"sum_hessian":[4.3654258E4,2.7151326E4,1.6502932E4,8.1733423E3,1.8977984E4,5.9099277E3,1.0593004E4,2.997837E3,5.1755054E3,2.896263E2,1.8688357E4,2.1570366E3,3.752891E3,1.0376816E4,2.1618759E2,9.635454E2,2.0342915E3,4.2618457E3,9.1365955E2,2.3704582E2,5.258049E1,1.0610877E4,8.0774805E3,4.038901E2,1.7531466E3,2.041023E3,1.7118683E3,2.1521724E3,8.224645E3,1.25558464E2,9.062913E1],"tree_param":{"num_deleted":"0","num_feature":"67","num_nodes":"31","size_leaf_vector":"1"}},{"base_weights":[4.3590735E-3,6.9882965E-1,-1.267734E0,-5.9424944E-2,1.0102147E0,-6.658104E-1,-1.6724429E0,1.6998106E-1,-9.4648594E-1,-1.2578027E0,1.0430281E0,-1.1033646E0,-1.2245262E-1,-1.6793953E0,1.4651248E0,-7.701388E-3,3.3170905E-2,-3.3161443E-2,-7.6505385E-2,4.7685426E-2,-8.791243E-2,5.6360014E-2,6.950263E-3,-6.3481845E-2,-2.2239447E-2,1.806681E-2,-2.723155E-2,-2.2818448E-2,-8.483352E-2,9.5662154E-2,-6.665816E-2],"categories":[],"categories_nodes":[],"categories_segments":[],"categories_sizes":[],"default_left":[0,0,0,0,0,0,0,0,0,0,0,0,0,0,0,0,0,0,0,0,0,0,0,0,0,0,0,0,0,0,0],"id":3,"left_children":[1,3,5,7,9,11,13,15,17,19,21,23,25,27,29,-1,-1,-1,-1,-1,-1,-1,-1,-1,-1,-1,-1,-1,-1,-1,-1],"loss_changes":[3.8620402E4,6.6768516E3,3.7596348E3,1.6755793E3,1.4931816E3,1.475897E3,2.0381055E2,1.046068E3,2.786742E2,3.1858606E2,1.5035234E3,3.760039E2,5.6605554E2,1.9382617E2,2.881152E1,0E0,0E0,0E0,0E0,0E0,0E0,0E0,0E0,0E0,0E0,0E0,0E0,0E0,0E0,0E0,0E0],"parents":[2147483647,0,0,1,1,2,2,3,3,4,4,5,5,6,6,7,7,8,8,9,9,10,10,11,11,12,12,13,13,14,14],"right_children":[2,4,6,8,10,12,14,16,18,20,22,24,26,28,30,-1,-1,-1,-1,-1,-1,-1,-1,-1,-1,-1,-1,-1,-1,-1,-1],"split_conditions":[8.08E-1,3.6383334E-1,7.6183334E1,7.78E1,5.5916668E1,9.553333E0,4.405E-1,1.0293333E1,7.97E1,1.2915E1,7.28E1,5.8E1,6.94E1,7.98E-1,4.118616E0,-7.701388E-3,3.3170905E-2,-3.3161443E-2,-7.6505385E-2,4.7685426E-2,-8.791243E-2,5.6360014E-2,6.950263E-3,-6.3481845E-2,-2.2239447E-2,1.806681E-2,-2.723155E-2,-2.2818448E-2,-8.483352E-2,9.5662154E-2,-6.665816E-2],"split_indices":[10,25,31,3,31,52,25,52,1,55,28,57,3,13,30,0,0,0,0,0,0,0,0,0,0,0,0,0,0,0,0],"split_type":[0,0,0,0,0,0,0,0,0,0,0,0,0,0,0,0,0,0,0,0,0,0,0,0,0,0,0,0,0,0,0],"sum_hessian":[4.3714367E4,2.8277404E4,1.5436962E4,8.232131E3,2.0045273E4,6.207377E3,9.229585E3,6.541277E3,1.6908545E3,2.8534433E2,1.975993E4,3.4378894E3,2.7694875E3,9.209643E3,1.9942276E1,3.9489438E3,2.592333E3,1.1397972E3,5.510572E2,5.248834E1,2.32856E2,1.80766E4,1.6833291E3,2.7441409E3,6.937484E2,1.2906412E3,1.4788463E3,1.286547E2,9.080988E3,1.7462164E1,2.4801118E0],"tree_param":{"num_deleted":"0","num_feature":"67","num_nodes":"31","size_leaf_vector":"1"}},{"base_weights":[4.1774553E-3,6.0021275E-1,-1.3795869E0,-1.2833352E-1,9.491379E-1,-7.754676E-1,-1.5692326E0,3.2489407E-1,-7.1814454E-1,1.0854987E0,4.0739676E-1,-1.2301063E-1,-9.832867E-1,-7.8474534E-1,-1.6119059E0,-6.2499265E-3,3.616839E-2,-5.295051E-2,-1.0071318E-2,5.5635612E-2,-2.9350195E-2,3.9266076E-2,-3.6741316E-3,1.7091561E-3,-8.155705E-2,-4.027957E-2,-7.5054E-2,-7.2398685E-2,-1.2205179E-2,3.3372696E-2,-8.1020504E-2],"categories":[],"categories_nodes":[],"categories_segments":[],"categories_sizes":[],"default_left":[0,0,0,0,0,0,0,0,0,0,0,0,0,0,0,0,0,0,0,0,0,0,0,0,0,0,0,0,0,0,0],"id":4,"left_children":[1,3,5,7,9,11,13,15,17,19,21,23,25,27,29,-1,-1,-1,-1,-1,-1,-1,-1,-1,-1,-1,-1,-1,-1,-1,-1],"loss_changes":[3.5902324E4,7.73438E3,1.5002129E3,2.6342827E3,1.5192812E3,4.2469568E2,3.3259766E2,9.9909924E2,7.539741E2,7.486797E2,7.5217786E2,1.7975298E2,2.1740796E2,1.8483286E2,1.8440625E2,0E0,0E0,0E0,0E0,0E0,0E0,0E0,0E0,0E0,0E0,0E0,0E0,0E0,0E0,0E0,0E0],"parents":[2147483647,0,0,1,1,2,2,3,3,4,4,5,5,6,6,7,7,8,8,9,9,10,10,11,11,12,12,13,13,14,14],"right_children":[2,4,6,8,10,12,14,16,18,20,22,24,26,28,30,-1,-1,-1,-1,-1,-1,-1,-1,-1,-1,-1,-1,-1,-1,-1,-1],"split_conditions":[7.43E1,1.0106667E1,7.653333E1,7.8466666E-1,7.8566664E-1,7.8566664E-1,7.913333E1,3.5366666E-1,3.67E-1,5.223333E-1,6.92E1,7.26E2,8.05E1,8.55E0,6.7E-1,-6.2499265E-3,3.616839E-2,-5.295051E-2,-1.0071318E-2,5.5635612E-2,-2.9350195E-2,3.9266076E-2,-3.6741316E-3,1.7091561E-3,-8.155705E-2,-4.027957E-2,-7.5054E-2,-7.2398685E-2,-1.2205179E-2,3.3372696E-2,-8.1020504E-2],"split_indices":[31,52,31,10,10,10,34,22,22,25,28,60,16,55,0,0,0,0,0,0,0,0,0,0,0,0,0,0,0,0,0],"split_type":[0,0,0,0,0,0,0,0,0,0,0,0,0,0,0,0,0,0,0,0,0,0,0,0,0,0,0,0,0,0,0],"sum_hessian":[4.3527973E4,3.0423908E4,1.3104064E4,9.852594E3,2.0571314E4,3.1320273E3,9.972037E3,5.5716377E3,4.280956E3,1.643379E4,4.137526E3,7.569965E2,2.3750308E3,5.154594E2,9.456578E3,2.617295E3,2.954343E3,2.5787632E3,1.7021927E3,1.6171002E4,2.6278656E2,2.3164146E3,1.8211111E3,6.8642694E2,7.056955E1,1.7701201E3,6.049107E2,2.3073215E2,2.8472723E2,3.4862667E1,9.421716E3],"tree_param":{"num_deleted":"0","num_feature":"67","num_nodes":"31","size_leaf_vector":"1"}},{"base_weights":[6.672631E-3,6.3745797E-1,-1.1803248E0,-8.349216E-2,9.364612E-1,-4.5851475E-1,-1.4742665E0,-7.289012E-1,2.0106885E-1,-1.2035806E0,9.6716434E-1,-1.1067644E0,-1.1328109E-1,-1.0721798E0,-1.5809262E0,-5.939984E-3,-5.3747308E-2,2.3332093E-2,-1.7201923E-2,-7.983715E-2,4.0980127E-2,5.455587E-2,2.024809E-2,-4.3389564E-3,-6.6523455E-2,1.982373E-2,-2.4520824E-2,-6.0496885E-2,-1.0493634E-2,-7.941349E-2,2.7197078E-2],"categories":[],"categories_nodes":[],"categories_segments":[],"categories_sizes":[],"default_left":[0,0,0,0,0,0,0,0,0,0,0,0,0,0,0,0,0,0,0,0,0,0,0,0,0,0,0,0,0,0,0],"id":5,"left_children":[1,3,5,7,9,11,13,15,17,19,21,23,25,27,29,-1,-1,-1,-1,-1,-1,-1,-1,-1,-1,-1,-1,-1,-1,-1,-1],"loss_changes":[3.237484E4,6.086541E3,3.182791E3,1.5204774E3,1.3125059E3,9.7192834E2,4.555547E2,5.3468994E2,8.319605E2,2.26202E2,1.3707109E3,3.4425317E2,5.452573E2,2.6564307E2,1.323164E2,0E0,0E0,0E0,0E0,0E0,0E0,0E0,0E0,0E0,0E0,0E0,0E0,0E0,0E0,0E0,0E0],"parents":[2147483647,0,0,1,1,2,2,3,3,4,4,5,5,6,6,7,7,8,8,9,9,10,10,11,11,12,12,13,13,14,14],"right_children":[2,4,6,8,10,12,14,16,18,20,22,24,26,28,30,-1,-1,-1,-1,-1,-1,-1,-1,-1,-1,-1,-1,-1,-1,-1,-1],"split_conditions":[7.3566666E1,3.6566666E-1,8.1266665E-1,8.49E0,5.5916668E1,8.583333E0,8.345E-1,7.12E1,7.9366666E-1,7.226667E-1,7.8566664E-1,7.896667E1,7.7666664E-1,4.23E-1,1.1815E1,-5.939984E-3,-5.3747308E-2,2.3332093E-2,-1.7201923E-2,-7.983715E-2,4.0980127E-2,5.455587E-2,2.024809E-2,-4.3389564E-3,-6.6523455E-2,1.982373E-2,-2.4520824E-2,-6.0496885E-2,-1.0493634E-2,-7.941349E-2,2.7197078E-2],"split_indices":[28,25,13,7,31,52,13,1,10,13,10,37,10,2,55,0,0,0,0,0,0,0,0,0,0,0,0,0,0,0,0],"split_type":[0,0,0,0,0,0,0,0,0,0,0,0,0,0,0,0,0,0,0,0,0,0,0,0,0,0,0,0,0,0,0],"sum_hessian":[4.323706E4,2.823375E4,1.5003308E4,8.277043E3,1.9956707E4,4.3424497E3,1.0660857E4,2.5322097E3,5.744833E3,2.8172842E2,1.9674979E4,1.5082268E3,2.8342231E3,2.2373865E3,8.423471E3,9.16934E2,1.6152758E3,3.862964E3,1.8818688E3,2.3606502E2,4.5663403E1,1.6119951E4,3.555028E3,2.7153696E2,1.2366898E3,1.2051835E3,1.6290396E3,1.9288412E3,3.0854526E2,8.394712E3,2.8759506E1],"tree_param":{"num_deleted":"0","num_feature":"67","num_nodes":"31","size_leaf_vector":"1"}},{"base_weights":[2.8494839E-3,6.016272E-1,-1.1526122E0,-1.0552747E-1,8.9268714E-1,6.508176E-2,-1.3171932E0,3.1082815E-1,-5.6897664E-1,1.0056671E0,2.9307047E-1,-4.2206252E-1,5.992648E-1,-9.062249E-1,-1.5013322E0,3.286258E-2,-1.1135327E-2,-4.3475334E-2,-5.79852E-3,5.2081287E-2,-1.3536765E-2,4.931959E-2,5.4693925E-3,5.0400076E-3,-5.4651376E-2,-3.1484842E-2,3.528696E-2,-7.985014E-3,-5.131936E-2,-7.6642424E-2,1.06007755E-2],"categories":[],"categories_nodes":[],"categories_segments":[],"categories_sizes":[],"default_left":[0,0,0,0,0,0,0,0,0,0,0,0,0,0,0,0,0,0,0,0,0,0,0,0,0,0,0,0,0,0,0],"id":6,"left_children":[1,3,5,7,9,11,13,15,17,19,21,23,25,27,29,-1,-1,-1,-1,-1,-1,-1,-1,-1,-1,-1,-1,-1,-1,-1,-1],"loss_changes":[2.95547E4,5.791301E3,2.9222188E3,1.5834088E3,1.3500352E3,4.5226834E2,9.706699E2,7.9911304E2,5.2857275E2,7.700762E2,4.02534E2,3.1904248E2,1.0891159E2,3.565879E2,4.7922852E2,0E0,0E0,0E0,0E0,0E0,0E0,0E0,0E0,0E0,0E0,0E0,0E0,0E0,0E0,0E0,0E0],"parents":[2147483647,0,0,1,1,2,2,3,3,4,4,5,5,6,6,7,7,8,8,9,9,10,10,11,11,12,12,13,13,14,14],"right_children":[2,4,6,8,10,12,14,16,18,20,22,24,26,28,30,-1,-1,-1,-1,-1,-1,-1,-1,-1,-1,-1,-1,-1,-1,-1,-1],"split_conditions":[8.056667E-1,3.69E-1,7.003333E1,7.81E-1,7.3333336E1,1.0463333E1,7.653333E1,7.013333E1,9.446667E0,5.086667E-1,6.46E1,7.34E1,3.255E-1,7.811667E1,4.08E-1,3.286258E-2,-1.1135327E-2,-4.3475334E-2,-5.79852E-3,5.2081287E-2,-1.3536765E-2,4.931959E-2,5.4693925E-3,5.0400076E-3,-5.4651376E-2,-3.1484842E-2,3.528696E-2,-7.985014E-3,-5.131936E-2,-7.6642424E-2,1.06007755E-2],"split_indices":[13,22,28,0,16,52,31,28,52,25,28,1,25,37,22,0,0,0,0,0,0,0,0,0,0,0,0,0,0,0,0],"split_type":[0,0,0,0,0,0,0,0,0,0,0,0,0,0,0,0,0,0,0,0,0,0,0,0,0,0,0,0,0,0,0],"sum_hessian":[4.2715453E4,2.8135627E4,1.4579827E4,8.203988E3,1.9931639E4,1.7360228E3,1.2843804E4,4.3217363E3,3.882252E3,1.677097E4,3.1606692E3,9.0809875E2,8.279241E2,3.975982E3,8.867822E3,2.620207E3,1.7015292E3,2.3333555E3,1.5488965E3,1.6311625E4,4.5934518E2,6.6106573E2,2.4996035E3,5.108548E2,3.9724393E2,6.561865E1,7.623054E2,5.515754E2,3.4244067E3,8.707752E3,1.6006998E2],"tree_param":{"num_deleted":"0","num_feature":"67","num_nodes":"31","size_leaf_vector":"1"}},{"base_weights":[-5.1697833E-3,6.46102E-1,-9.743583E-1,2.6037183E-2,8.9500743E-1,-1.270955E0,-1.24731764E-1,-1.6856849E-1,8.048472E-1,1.0006367E0,4.471126E-1,-8.7752557E-1,-1.489812E0,4.1919926E-1,-5.256341E-1,-2.3328783E-2,1.3525024E-2,4.2372752E-2,-9.168907E-2,-4.5696374E-2,5.1615782E-2,2.640382E-2,-3.4361105E-2,-3.5322394E-2,-7.429569E-2,-7.4741274E-2,7.935819E-2,3.125645E-2,-2.0747421E-2,3.0839572E-2,-3.376768E-2],"categories":[],"categories_nodes":[],"categories_segments":[],"categories_sizes":[],"default_left":[0,0,0,0,0,0,0,0,0,0,0,0,0,0,0,0,0,0,0,0,0,0,0,0,0,0,0,0,0,0,0],"id":7,"left_children":[1,3,5,7,9,11,13,15,17,19,21,23,25,27,29,-1,-1,-1,-1,-1,-1,-1,-1,-1,-1,-1,-1,-1,-1,-1,-1],"loss_changes":[2.6622283E4,3.8932617E3,4.271463E3,1.0954105E3,8.511553E2,1.0805781E3,9.569469E2,7.567689E2,1.6400146E2,8.8429004E2,3.159973E2,4.666521E2,1.2689258E2,3.2013455E2,4.3250867E2,0E0,0E0,0E0,0E0,0E0,0E0,0E0,0E0,0E0,0E0,0E0,0E0,0E0,0E0,0E0,0E0],"parents":[2147483647,0,0,1,1,2,2,3,3,4,4,5,5,6,6,7,7,8,8,9,9,10,10,11,11,12,12,13,13,14,14],"right_children":[2,4,6,8,10,12,14,16,18,20,22,24,26,28,30,-1,-1,-1,-1,-1,-1,-1,-1,-1,-1,-1,-1,-1,-1,-1,-1],"split_conditions":[7.97E-1,3.7133333E-1,9.693334E0,1.337E1,7.226667E1,7.653333E1,6.985E1,5.4866665E1,8.22E1,6.6183334E1,7.3E2,8.06E1,4.78E-1,7.523333E1,7.513333E1,-2.3328783E-2,1.3525024E-2,4.2372752E-2,-9.168907E-2,-4.5696374E-2,5.1615782E-2,2.640382E-2,-3.4361105E-2,-3.5322394E-2,-7.429569E-2,-7.4741274E-2,7.935819E-2,3.125645E-2,-2.0747421E-2,3.0839572E-2,-3.376768E-2],"split_indices":[10,22,52,7,16,31,31,46,3,37,60,16,22,16,34,0,0,0,0,0,0,0,0,0,0,0,0,0,0,0,0],"split_type":[0,0,0,0,0,0,0,0,0,0,0,0,0,0,0,0,0,0,0,0,0,0,0,0,0,0,0,0,0,0,0],"sum_hessian":[4.217491E4,2.5224785E4,1.6950125E4,7.2256343E3,1.799915E4,1.2563745E4,4.3863813E3,5.7817095E3,1.4439249E3,1.4563365E4,3.4357844E3,4.492605E3,8.0711396E3,1.8611665E3,2.5252146E3,3.4440698E3,2.3376396E3,1.4216475E3,2.2277536E1,2.365939E2,1.4326771E4,3.2073896E3,2.2839485E2,3.508252E3,9.8435297E2,8.058524E3,1.2615916E1,1.4928666E3,3.683E2,2.9223245E2,2.2329822E3],"tree_param":{"num_deleted":"0","num_feature":"67","num_nodes":"31","size_leaf_vector":"1"}},{"base_weights":[-8.171834E-3,4.6217632E-1,-1.261573E0,-1.2975635E-1,8.2183594E-1,-8.3978546E-1,-1.456447E0,2.738272E-1,-6.298611E-1,9.582719E-1,4.1585818E-1,-6.289001E-1,-1.441787E0,-1.5009764E0,-1.2202715E0,-1.8094666E-2,2.5402457E-2,-5.2393135E-2,-1.3312349E-2,-6.368809E-4,5.0917555E-2,3.0046001E-2,-2.7878075E-3,-5.1666964E-2,-1.6963169E-2,8.675023E-2,-7.3295355E-2,-7.556035E-2,-3.3699427E-2,-6.342582E-2,2.5014883E-2],"categories":[],"categories_nodes":[],"categories_segments":[],"categories_sizes":[],"default_left":[0,0,0,0,0,0,0,0,0,0,0,0,0,0,0,0,0,0,0,0,0,0,0,0,0,0,0,0,0,0,0],"id":8,"left_children":[1,3,5,7,9,11,13,15,17,19,21,23,25,27,29,-1,-1,-1,-1,-1,-1,-1,-1,-1,-1,-1,-1,-1,-1,-1,-1],"loss_changes":[2.4697455E4,6.4852993E3,9.383613E2,2.3241218E3,1.0491787E3,4.5799854E2,8.038086E1,9.4907385E2,7.813331E2,8.273428E2,4.161801E2,3.1344055E2,7.4340454E1,5.4591797E1,1.0401758E2,0E0,0E0,0E0,0E0,0E0,0E0,0E0,0E0,0E0,0E0,0E0,0E0,0E0,0E0,0E0,0E0],"parents":[2147483647,0,0,1,1,2,2,3,3,4,4,5,5,6,6,7,7,8,8,9,9,10,10,11,11,12,12,13,13,14,14],"right_children":[2,4,6,8,10,12,14,16,18,20,22,24,26,28,30,-1,-1,-1,-1,-1,-1,-1,-1,-1,-1,-1,-1,-1,-1,-1,-1],"split_conditions":[7.49E1,1.0413333E1,8.3316666E-1,7.8466666E-1,7.15E1,7.8816666E1,8.196667E0,3.37E-1,3.47E-1,5.7233334E1,7.97E-1,8.553333E0,4.330127E-1,5.0785627E0,2.9766667E0,-1.8094666E-2,2.5402457E-2,-5.2393135E-2,-1.3312349E-2,-6.368809E-4,5.0917555E-2,3.0046001E-2,-2.7878075E-3,-5.1666964E-2,-1.6963169E-2,8.675023E-2,-7.3295355E-2,-7.556035E-2,-3.3699427E-2,-6.342582E-2,2.5014883E-2],"split_indices":[31,52,13,10,16,31,55,2,22,31,10,52,54,54,50,0,0,0,0,0,0,0,0,0,0,0,0,0,0,0,0],"split_type":[0,0,0,0,0,0,0,0,0,0,0,0,0,0,0,0,0,0,0,0,0,0,0,0,0,0,0,0,0,0,0],"sum_hessian":[4.189113E4,3.0461031E4,1.1430098E4,1.1513159E4,1.8947871E4,3.6137559E3,7.8163423E3,6.371679E3,5.14148E3,1.4180804E4,4.7670684E3,2.6777617E3,9.359941E2,6.571898E3,1.2444445E3,1.715354E3,4.6563247E3,2.390984E3,2.7504958E3,8.2632855E2,1.3354475E4,3.4234355E3,1.3436328E3,1.1163541E3,1.5614077E3,6.5186048E0,9.2947546E2,6.4907744E3,8.1123566E1,1.2107574E3,3.3686977E1],"tree_param":{"num_deleted":"0","num_feature":"67","num_nodes":"31","size_leaf_vector":"1"}},{"base_weights":[-2.5639301E-3,5.673504E-1,-9.9002445E-1,-1.3589262E-2,8.198893E-1,-3.5322964E-1,-1.304077E0,2.2662917E-1,-6.8693054E-1,9.3634015E-1,4.400138E-1,2.9524684E-1,-7.3979086E-1,-1.006954E0,-1.4547415E0,2.5663285E-2,-1.1199047E-2,1.4844825E-2,-4.193884E-2,-4.2106822E-2,4.8375044E-2,5.4682083E-2,1.5820783E-2,-1.3664814E-2,2.9918034E-2,-5.0899714E-2,-2.0284059E-2,-6.4631484E-2,-3.6534484E-2,-7.304892E-2,2.3322038E-2],"categories":[],"categories_nodes":[],"categories_segments":[],"categories_sizes":[],"default_left":[0,0,0,0,0,0,0,0,0,0,0,0,0,0,0,0,0,0,0,0,0,0,0,0,0,0,0,0,0,0,0],"id":9,"left_children":[1,3,5,7,9,11,13,15,17,19,21,23,25,27,29,-1,-1,-1,-1,-1,-1,-1,-1,-1,-1,-1,-1,-1,-1,-1,-1],"loss_changes":[2.3362562E4,3.8617002E3,3.0376895E3,1.2903253E3,8.1118164E2,1.2583623E3,4.539707E2,7.595516E2,3.1361304E2,7.789512E2,3.4756067E2,3.2332123E2,2.918988E2,2.6946997E2,8.1543945E1,0E0,0E0,0E0,0E0,0E0,0E0,0E0,0E0,0E0,0E0,0E0,0E0,0E0,0E0,0E0,0E0],"parents":[2147483647,0,0,1,1,2,2,3,3,4,4,5,5,6,6,7,7,8,8,9,9,10,10,11,11,12,12,13,13,14,14],"right_children":[2,4,6,8,10,12,14,16,18,20,22,24,26,28,30,-1,-1,-1,-1,-1,-1,-1,-1,-1,-1,-1,-1,-1,-1,-1,-1],"split_conditions":[7.995E-1,1.0106667E1,7.6333336E1,8.15E-1,7.15E1,7.046667E1,8.425E-1,7.013333E1,6.35E1,6.6183334E1,7.19E1,9.78E0,5.3466667E1,8.26E0,5.24E-1,2.5663285E-2,-1.1199047E-2,1.4844825E-2,-4.193884E-2,-4.2106822E-2,4.8375044E-2,5.4682083E-2,1.5820783E-2,-1.3664814E-2,2.9918034E-2,-5.0899714E-2,-2.0284059E-2,-6.4631484E-2,-3.6534484E-2,-7.304892E-2,2.3322038E-2],"split_indices":[13,52,19,0,16,28,13,28,3,37,34,7,49,52,2,0,0,0,0,0,0,0,0,0,0,0,0,0,0,0,0],"split_type":[0,0,0,0,0,0,0,0,0,0,0,0,0,0,0,0,0,0,0,0,0,0,0,0,0,0,0,0,0,0,0],"sum_hessian":[4.1511676E4,2.6320936E4,1.5190741E4,7.97537E3,1.8345564E4,5.018006E3,1.0172735E4,5.878754E3,2.0966162E3,1.4040106E4,4.305459E3,1.8741906E3,3.1438154E3,3.4253467E3,6.7473887E3,3.593049E3,2.2857048E3,2.8020236E2,1.816414E3,2.413127E2,1.3798794E4,6.834265E2,3.6220325E3,6.517735E2,1.222417E3,1.7143116E3,1.4295039E3,1.6821805E3,1.743166E3,6.7257935E3,2.1595196E1],"tree_param":{"num_deleted":"0","num_feature":"67","num_nodes":"31","size_leaf_vector":"1"}},{"base_weights":[4.470894E-3,5.189964E-1,-1.0076056E0,-1.40824625E-2,8.0172473E-1,-4.9075457E-1,-1.3013003E0,2.6649612E-1,-6.2961495E-1,8.8704157E-1,3.7973982E-1,-2.7061817E-1,-1.0930831E0,-1.3302749E0,-1.1523568E-2,-2.574648E-3,2.826404E-2,-1.9107658E-2,-6.618738E-2,-3.450441E-3,4.7056105E-2,3.957587E-2,9.443031E-3,5.592046E-3,-2.8575772E-2,5.309451E-3,-5.9722643E-2,-5.345079E-2,-7.077809E-2,4.7412846E-2,-5.0993104E-2],"categories":[],"categories_nodes":[],"categories_segments":[],"categories_sizes":[],"default_left":[0,0,0,0,0,0,0,0,0,0,0,0,0,0,0,0,0,0,0,0,0,0,0,0,0,0,0,0,0,0,0],"id":10,"left_children":[1,3,5,7,9,11,13,15,17,19,21,23,25,27,29,-1,-1,-1,-1,-1,-1,-1,-1,-1,-1,-1,-1,-1,-1,-1,-1],"loss_changes":[2.1438863E4,4.113683E3,2.1056797E3,1.6339769E3,6.417666E2,6.6658044E2,3.3062305E2,6.174799E2,5.0833594E2,7.670791E2,2.3574393E2,4.2409326E2,1.6373865E2,1.9129492E2,1.9007146E2,0E0,0E0,0E0,0E0,0E0,0E0,0E0,0E0,0E0,0E0,0E0,0E0,0E0,0E0,0E0,0E0],"parents":[2147483647,0,0,1,1,2,2,3,3,4,4,5,5,6,6,7,7,8,8,9,9,10,10,11,11,12,12,13,13,14,14],"right_children":[2,4,6,8,10,12,14,16,18,20,22,24,26,28,30,-1,-1,-1,-1,-1,-1,-1,-1,-1,-1,-1,-1,-1,-1,-1,-1],"split_conditions":[7.3566666E1,1.0413333E1,7.636667E1,8.14E-1,7.2933334E1,7.8833336E1,4.08E-1,3.9E-1,7.66E1,5.7233334E1,6.58E1,7.89E-1,7.3E-1,7.8816666E1,1.18E1,-2.574648E-3,2.826404E-2,-1.9107658E-2,-6.618738E-2,-3.450441E-3,4.7056105E-2,3.957587E-2,9.443031E-3,5.592046E-3,-2.8575772E-2,5.309451E-3,-5.9722643E-2,-5.345079E-2,-7.077809E-2,4.7412846E-2,-5.0993104E-2],"split_indices":[28,52,31,0,16,16,22,2,16,31,28,0,0,31,56,0,0,0,0,0,0,0,0,0,0,0,0,0,0,0,0],"split_type":[0,0,0,0,0,0,0,0,0,0,0,0,0,0,0,0,0,0,0,0,0,0,0,0,0,0,0,0,0,0,0],"sum_hessian":[4.1168055E4,2.7293107E4,1.3874947E4,9.459102E3,1.7834006E4,5.028444E3,8.846504E3,6.497781E3,2.9613208E3,1.4833808E4,3.000198E3,3.6836199E3,1.344824E3,8.6521045E3,1.9439944E2,3.1481309E3,3.34965E3,2.184195E3,7.7712585E2,7.941586E2,1.4039648E4,9.4925464E2,2.0509434E3,1.6222578E3,2.061362E3,1.04809525E2,1.2400144E3,2.132659E3,6.5194453E3,9.962839E1,9.477106E1],"tree_param":{"num_deleted":"0","num_feature":"67","num_nodes":"31","size_leaf_vector":"1"}},{"base_weights":[-2.5951555E-3,4.1554293E-1,-1.170993E0,-2.1373789E-1,6.8861353E-1,-7.9395264E-1,-1.3493596E0,2.629223E-1,-5.888825E-1,8.23374E-1,1.9871284E-1,-6.2319124E-1,-1.2825071E0,-1.397847E0,-1.1025319E0,2.5825322E-2,-1.6158989E-2,-3.6317367E-2,8.772052E-3,4.3305423E-2,-6.420138E-3,2.6585875E-2,-8.204289E-3,-6.164543E-2,-2.3490975E-2,-6.6350274E-2,5.7273317E-2,-5.8508045E-3,-7.00633E-2,-6.291606E-2,-3.000084E-2],"categories":[],"categories_nodes":[],"categories_segments":[],"categories_sizes":[],"default_left":[0,0,0,0,0,0,0,0,0,0,0,0,0,0,0,0,0,0,0,0,0,0,0,0,0,0,0,0,0,0,0],"id":11,"left_children":[1,3,5,7,9,11,13,15,17,19,21,23,25,27,29,-1,-1,-1,-1,-1,-1,-1,-1,-1,-1,-1,-1,-1,-1,-1,-1],"loss_changes":[1.9887023E4,5.1514805E3,7.2041797E2,1.6225013E3,1.380044E3,2.8683496E2,8.560449E1,5.941378E2,5.335851E2,6.669834E2,5.451352E2,2.3851074E2,9.7894165E1,2.6469727E1,9.321033E1,0E0,0E0,0E0,0E0,0E0,0E0,0E0,0E0,0E0,0E0,0E0,0E0,0E0,0E0,0E0,0E0],"parents":[2147483647,0,0,1,1,2,2,3,3,4,4,5,5,6,6,7,7,8,8,9,9,10,10,11,11,12,12,13,13,14,14],"right_children":[2,4,6,8,10,12,14,16,18,20,22,24,26,28,30,-1,-1,-1,-1,-1,-1,-1,-1,-1,-1,-1,-1,-1,-1,-1,-1],"split_conditions":[7.49E1,3.65E-1,8.3316666E-1,7.8E-1,7.8566664E-1,7.8816666E1,8.196667E0,7.7566665E-1,1.0886666E1,4.9733335E-1,6.86E1,3.3E1,5.24E-1,7.83E-1,5.4016666E1,2.5825322E-2,-1.6158989E-2,-3.6317367E-2,8.772052E-3,4.3305423E-2,-6.420138E-3,2.6585875E-2,-8.204289E-3,-6.164543E-2,-2.3490975E-2,-6.6350274E-2,5.7273317E-2,-5.8508045E-3,-7.00633E-2,-6.291606E-2,-3.000084E-2],"split_indices":[31,22,13,0,10,31,55,10,55,25,3,57,2,10,49,0,0,0,0,0,0,0,0,0,0,0,0,0,0,0,0],"split_type":[0,0,0,0,0,0,0,0,0,0,0,0,0,0,0,0,0,0,0,0,0,0,0,0,0,0,0,0,0,0,0],"sum_hessian":[4.0704086E4,2.997683E4,1.0727255E4,9.0716875E3,2.0905143E4,3.4467644E3,7.2804907E3,3.9954075E3,5.0762803E3,1.6394664E4,4.5104775E3,2.5557458E3,8.910186E2,6.081217E3,1.1992738E3,2.7888823E3,1.206525E3,4.3025156E3,7.737645E2,1.5690267E4,7.043982E2,2.3515642E3,2.1589133E3,5.1225946E2,2.0434865E3,8.754278E2,1.5590808E1,1.6282907E1,6.064934E3,9.143147E2,2.8495908E2],"tree_param":{"num_deleted":"0","num_feature":"67","num_nodes":"31","size_leaf_vector":"1"}},{"base_weights":[1.9401719E-3,5.033913E-1,-8.8691664E-1,-2.1510825E-2,7.347899E-1,-3.9867052E-1,-1.2628629E0,1.10804E-1,-1.0992577E0,5.9223764E-2,7.885931E-1,-7.689326E-1,-2.7345315E-2,-1.290503E0,6.189275E-2,-2.6188342E-2,1.3958991E-2,-6.337771E-2,4.5265798E-2,2.5765603E-2,-6.770959E-2,4.87261E-2,2.8403422E-2,-5.2886933E-2,-1.3382725E-2,2.0786686E-2,-1.628275E-2,-5.2028723E-2,-6.796601E-2,4.145957E-2,-6.120462E-2],"categories":[],"categories_nodes":[],"categories_segments":[],"categories_sizes":[],"default_left":[0,0,0,0,0,0,0,0,0,0,0,0,0,0,0,0,0,0,0,0,0,0,0,0,0,0,0,0,0,0,0],"id":12,"left_children":[1,3,5,7,9,11,13,15,17,19,21,23,25,27,29,-1,-1,-1,-1,-1,-1,-1,-1,-1,-1,-1,-1,-1,-1,-1,-1],"loss_changes":[1.7984824E4,3.1333408E3,2.6708281E3,1.1257924E3,6.5072266E2,8.706269E2,3.011328E2,7.5144244E2,2.9237354E2,8.5278906E2,6.793906E2,4.5875745E2,4.181744E2,1.3710547E2,1.6776357E2,0E0,0E0,0E0,0E0,0E0,0E0,0E0,0E0,0E0,0E0,0E0,0E0,0E0,0E0,0E0,0E0],"parents":[2147483647,0,0,1,1,2,2,3,3,4,4,5,5,6,6,7,7,8,8,9,9,10,10,11,11,12,12,13,13,14,14],"right_children":[2,4,6,8,10,12,14,16,18,20,22,24,26,28,30,-1,-1,-1,-1,-1,-1,-1,-1,-1,-1,-1,-1,-1,-1,-1,-1],"split_conditions":[7.995E-1,1.0106667E1,7.6183334E1,7.8666664E1,5.7233334E1,9.446667E0,4.08E-1,3.1E-1,4.17E-1,4.6083334E-1,6.7833336E1,5.2E1,6.76E1,8.3633333E-1,2.2033334E0,-2.6188342E-2,1.3958991E-2,-6.337771E-2,4.5265798E-2,2.5765603E-2,-6.770959E-2,4.87261E-2,2.8403422E-2,-5.2886933E-2,-1.3382725E-2,2.0786686E-2,-1.628275E-2,-5.2028723E-2,-6.796601E-2,4.145957E-2,-6.120462E-2],"split_indices":[13,52,31,16,31,52,22,2,25,25,16,57,3,13,43,0,0,0,0,0,0,0,0,0,0,0,0,0,0,0,0],"split_type":[0,0,0,0,0,0,0,0,0,0,0,0,0,0,0,0,0,0,0,0,0,0,0,0,0,0,0,0,0,0,0],"sum_hessian":[4.03482E4,2.5795838E4,1.4552363E4,7.892799E3,1.790304E4,6.3315547E3,8.220809E3,7.0305557E3,8.622431E2,1.3208047E3,1.6582234E4,3.1697798E3,3.1617751E3,8.0528184E3,1.6799025E2,1.4738464E3,5.556709E3,7.957985E2,6.6444595E1,9.990586E2,3.217461E2,8.994971E3,7.587263E3,2.0103992E3,1.1593805E3,1.2720328E3,1.8897423E3,1.7420796E3,6.310739E3,1.0543587E2,6.2554386E1],"tree_param":{"num_deleted":"0","num_feature":"67","num_nodes":"31","size_leaf_vector":"1"}},{"base_weights":[-3.5189206E-3,3.8083777E-1,-1.1020675E0,-1.6181651E-1,6.48327E-1,-7.800305E-1,-1.3250321E0,3.033082E-1,-4.8067218E-1,7.660594E-1,1.3681109E-1,-5.2844244E-1,-1.166778E0,-1.3321961E0,6.668141E-1,2.12794E-2,-3.2807343E-2,-1.3093307E-2,-4.8813954E-2,-4.9514215E-2,3.9588347E-2,1.6876554E-2,-2.3544297E-2,-1.6340291E-2,-4.7990248E-2,-7.954451E-3,-6.0649455E-2,-6.6931725E-2,2.8789753E-2,1.3190638E-1,-6.8591274E-2],"categories":[],"categories_nodes":[],"categories_segments":[],"categories_sizes":[],"default_left":[0,0,0,0,0,0,0,0,0,0,0,0,0,0,0,0,0,0,0,0,0,0,0,0,0,0,0,0,0,0,0],"id":13,"left_children":[1,3,5,7,9,11,13,15,17,19,21,23,25,27,29,-1,-1,-1,-1,-1,-1,-1,-1,-1,-1,-1,-1,-1,-1,-1,-1],"loss_changes":[1.6779035E4,4.2732603E3,7.385293E2,1.4418059E3,1.1874131E3,4.0962598E2,8.771484E1,4.641906E2,6.251896E2,7.2453125E2,4.5033246E2,2.2202954E2,7.714966E1,7.525391E1,9.393232E1,0E0,0E0,0E0,0E0,0E0,0E0,0E0,0E0,0E0,0E0,0E0,0E0,0E0,0E0,0E0,0E0],"parents":[2147483647,0,0,1,1,2,2,3,3,4,4,5,5,6,6,7,7,8,8,9,9,10,10,11,11,12,12,13,13,14,14],"right_children":[2,4,6,8,10,12,14,16,18,20,22,24,26,28,30,-1,-1,-1,-1,-1,-1,-1,-1,-1,-1,-1,-1,-1,-1,-1,-1],"split_conditions":[7.49E1,3.7E-1,7.8816666E1,7.73E-1,7.313333E1,8.3316666E-1,1.572E1,7.7666664E1,7.6333336E1,6.6183334E1,8.15E-1,2.7E1,-3.8E0,5.24E-1,2.3028967E0,2.12794E-2,-3.2807343E-2,-1.3093307E-2,-4.8813954E-2,-4.9514215E-2,3.9588347E-2,1.6876554E-2,-2.3544297E-2,-1.6340291E-2,-4.7990248E-2,-7.954451E-3,-6.0649455E-2,-6.6931725E-2,2.8789753E-2,1.3190638E-1,-6.8591274E-2],"split_indices":[31,22,31,0,16,13,7,16,16,37,0,56,32,2,27,0,0,0,0,0,0,0,0,0,0,0,0,0,0,0,0],"split_type":[0,0,0,0,0,0,0,0,0,0,0,0,0,0,0,0,0,0,0,0,0,0,0,0,0,0,0,0,0,0,0],"sum_hessian":[3.973667E4,2.943774E4,1.029893E4,9.719739E3,1.9718E4,4.215218E3,6.0837124E3,3.9531726E3,5.766567E3,1.6028356E4,3.6896443E3,2.555302E3,1.6599158E3,6.0622397E3,2.147271E1,3.5067976E3,4.4637503E2,4.001478E3,1.7650889E3,2.3068095E2,1.5797675E4,2.7738853E3,9.15759E2,1.7425295E3,8.127724E2,7.297818E1,1.5869376E3,6.0421494E3,2.0090343E1,1.0767116E1,1.0705594E1],"tree_param":{"num_deleted":"0","num_feature":"67","num_nodes":"31","size_leaf_vector":"1"}},{"base_weights":[7.235761E-4,4.4137663E-1,-9.0149623E-1,-7.6805845E-2,6.5484035E-1,-3.3481973E-1,-1.1744317E0,2.7050388E-1,-4.2655802E-1,-1.1360129E0,6.818503E-1,3.059199E-1,-5.596855E-1,-9.742036E-1,-6.690528E-2,1.8686978E-2,-2.4918802E-2,-4.033295E-2,-6.796267E-3,2.2291018E-2,-8.5861616E-2,4.1269276E-2,1.7210683E-2,-1.6123625E-2,2.7683347E-2,-3.583808E-2,1.5286513E-2,-5.6752887E-2,-3.2980796E-2],"categories":[],"categories_nodes":[],"categories_segments":[],"categories_sizes":[],"default_left":[0,0,0,0,0,0,0,0,0,0,0,0,0,0,0,0,0,0,0,0,0,0,0,0,0,0,0,0,0],"id":14,"left_children":[1,3,5,7,9,11,13,15,17,19,21,23,25,27,-1,-1,-1,-1,-1,-1,-1,-1,-1,-1,-1,-1,-1,-1,-1],"loss_changes":[1.5651155E4,2.9256943E3,1.9976006E3,9.376026E2,9.068877E2,6.054146E2,2.8441602E2,3.0760757E2,4.247259E2,2.570058E2,8.940918E2,1.7016925E2,4.2295673E2,1.9786646E2,0E0,0E0,0E0,0E0,0E0,0E0,0E0,0E0,0E0,0E0,0E0,0E0,0E0,0E0,0E0],"parents":[2147483647,0,0,1,1,2,2,3,3,4,4,5,5,6,6,7,7,8,8,9,9,10,10,11,11,12,12,13,13],"right_children":[2,4,6,8,10,12,14,16,18,20,22,24,26,28,-1,-1,-1,-1,-1,-1,-1,-1,-1,-1,-1,-1,-1,-1,-1],"split_conditions":[7.3566666E1,9.745E0,8.1266665E-1,7.28E1,5.5916668E1,7.86E1,8.005E1,7.548333E1,8.57E0,1.345E1,7.0933334E1,5.2066666E1,1.28E1,5.2E1,-6.690528E-2,1.8686978E-2,-2.4918802E-2,-4.033295E-2,-6.796267E-3,2.2291018E-2,-8.5861616E-2,4.1269276E-2,1.7210683E-2,-1.6123625E-2,2.7683347E-2,-3.583808E-2,1.5286513E-2,-5.6752887E-2,-3.2980796E-2],"split_indices":[28,55,13,1,31,34,31,19,7,55,19,46,7,57,0,0,0,0,0,0,0,0,0,0,0,0,0,0,0],"split_type":[0,0,0,0,0,0,0,0,0,0,0,0,0,0,0,0,0,0,0,0,0,0,0,0,0,0,0,0,0],"sum_hessian":[3.9365445E4,2.644833E4,1.2917114E4,7.716702E3,1.8731629E4,4.1997324E3,8.717382E3,3.8719841E3,3.844718E3,2.777061E2,1.8453922E4,1.0909073E3,3.1088252E3,3.9239868E3,4.793395E3,3.4140955E3,4.5788852E2,1.6651687E3,2.1795493E3,7.468315E1,2.0302293E2,1.294804E4,5.505883E3,3.0839197E2,7.825154E2,2.6313904E3,4.77435E2,2.594676E3,1.3293107E3],"tree_param":{"num_deleted":"0","num_feature":"67","num_nodes":"29","size_leaf_vector":"1"}},{"base_weights":[1.9245826E-3,3.7850666E-1,-9.935553E-1,-1.06474005E-1,6.299744E-1,-5.7328373E-1,-1.2436919E0,2.348416E-1,-5.221993E-1,-7.177977E-1,6.649218E-1,-4.0741003E-1,-1.2033387E0,3.6117452E-1,-1.2528979E0,2.9642066E-2,-8.217068E-4,-5.076784E-2,-1.41767105E-2,-8.527709E-2,7.1648373E-3,4.2192444E-2,1.8068006E-2,8.781692E-3,-2.9239196E-2,-6.27047E-2,3.3775814E-2,-6.567885E-2,7.280702E-2,-6.496402E-2,-5.1431682E-2],"categories":[],"categories_nodes":[],"categories_segments":[],"categories_sizes":[],"default_left":[0,0,0,0,0,0,0,0,0,0,0,0,0,0,0,0,0,0,0,0,0,0,0,0,0,0,0,0,0,0,0],"id":15,"left_children":[1,3,5,7,9,11,13,15,17,19,21,23,25,27,29,-1,-1,-1,-1,-1,-1,-1,-1,-1,-1,-1,-1,-1,-1,-1,-1],"loss_changes":[1.4602708E4,3.4467922E3,1.1232031E3,1.3695563E3,8.771094E2,4.1659326E2,9.946094E1,4.7683063E2,5.1188977E2,4.007472E2,9.850742E2,3.26969E2,8.0111206E1,7.3426796E1,6.797461E1,0E0,0E0,0E0,0E0,0E0,0E0,0E0,0E0,0E0,0E0,0E0,0E0,0E0,0E0,0E0,0E0],"parents":[2147483647,0,0,1,1,2,2,3,3,4,4,5,5,6,6,7,7,8,8,9,9,10,10,11,11,12,12,13,13,14,14],"right_children":[2,4,6,8,10,12,14,16,18,20,22,24,26,28,30,-1,-1,-1,-1,-1,-1,-1,-1,-1,-1,-1,-1,-1,-1,-1,-1],"split_conditions":[7.43E1,3.6866668E-1,8.325E-1,7.96E-1,5.7233334E1,7.871667E1,5.95E1,6.92E1,7.96E0,6.075E1,6.95E1,7.8933334E1,6.2631087E0,8.6454034E-2,8.225E0,2.9642066E-2,-8.217068E-4,-5.076784E-2,-1.41767105E-2,-8.527709E-2,7.1648373E-3,4.2192444E-2,1.8068006E-2,8.781692E-3,-2.9239196E-2,-6.27047E-2,3.3775814E-2,-6.567885E-2,7.280702E-2,-6.496402E-2,-5.1431682E-2],"split_indices":[31,25,13,0,31,31,1,1,7,19,16,34,51,24,55,0,0,0,0,0,0,0,0,0,0,0,0,0,0,0,0],"split_type":[0,0,0,0,0,0,0,0,0,0,0,0,0,0,0,0,0,0,0,0,0,0,0,0,0,0,0,0,0,0,0],"sum_hessian":[3.8951027E4,2.8260809E4,1.0690218E4,9.650136E3,1.8610674E4,3.989865E3,6.700353E3,5.2995635E3,4.3505723E3,4.698801E2,1.8140793E4,3.15967E3,8.3019525E2,3.7997826E1,6.662355E3,2.185071E3,3.1144924E3,1.4177656E3,2.932807E3,2.1838937E2,2.5149074E2,1.1412307E4,6.7284863E3,7.370221E2,2.4226477E3,8.086821E2,2.1513124E1,1.4942936E1,2.3054888E1,5.5166133E3,1.145742E3],"tree_param":{"num_deleted":"0","num_feature":"67","num_nodes":"31","size_leaf_vector":"1"}},{"base_weights":[6.1913654E-3,4.1902277E-1,-8.440015E-1,3.6009538E-3,6.637397E-1,-4.623187E-1,-1.204695E0,-1.5119775E-1,6.6333205E-1,-8.2068026E-1,6.8527853E-1,-7.687917E-1,-7.827316E-2,-1.2209636E0,3.0425555E-1,2.3893787E-2,-1.4754945E-2,3.5332315E-2,-8.904522E-2,2.0996958E-2,-6.832205E-2,3.8701575E-2,1.4556545E-2,-4.759862E-2,-8.126142E-3,4.6459872E-2,-9.875946E-3,-6.1508257E-2,1.6546575E-2,4.7822945E-2,-7.256005E-2],"categories":[],"categories_nodes":[],"categories_segments":[],"categories_sizes":[],"default_left":[0,0,0,0,0,0,0,0,0,0,0,0,0,0,0,0,0,0,0,0,0,0,0,0,0,0,0,0,0,0,0],"id":16,"left_children":[1,3,5,7,9,11,13,15,17,19,21,23,25,27,29,-1,-1,-1,-1,-1,-1,-1,-1,-1,-1,-1,-1,-1,-1,-1,-1],"loss_changes":[1.3552787E4,2.6423906E3,1.7370059E3,9.842301E2,5.235332E2,7.2188403E2,1.5965137E2,7.0676624E2,1.9516669E2,1.592795E2,5.637988E2,3.786947E2,3.2737238E2,9.207422E1,8.154148E1,0E0,0E0,0E0,0E0,0E0,0E0,0E0,0E0,0E0,0E0,0E0,0E0,0E0,0E0,0E0,0E0],"parents":[2147483647,0,0,1,1,2,2,3,3,4,4,5,5,6,6,7,7,8,8,9,9,10,10,11,11,12,12,13,13,14,14],"right_children":[2,4,6,8,10,12,14,16,18,20,22,24,26,28,30,-1,-1,-1,-1,-1,-1,-1,-1,-1,-1,-1,-1,-1,-1,-1,-1],"split_conditions":[8.08E-1,3.8266668E-1,7.753333E1,1.355E1,6.6183334E1,9.553333E0,4.2066666E-1,6.35E1,8.22E1,4.5683333E-1,7.013333E1,3E0,7.2933334E1,1.513E1,8.38E-1,2.3893787E-2,-1.4754945E-2,3.5332315E-2,-8.904522E-2,2.0996958E-2,-6.832205E-2,3.8701575E-2,1.4556545E-2,-4.759862E-2,-8.126142E-3,4.6459872E-2,-9.875946E-3,-6.1508257E-2,1.6546575E-2,4.7822945E-2,-7.256005E-2],"split_indices":[10,22,28,7,37,52,22,3,3,25,28,63,34,7,10,0,0,0,0,0,0,0,0,0,0,0,0,0,0,0,0],"split_type":[0,0,0,0,0,0,0,0,0,0,0,0,0,0,0,0,0,0,0,0,0,0,0,0,0,0,0,0,0,0,0],"sum_hessian":[3.861143E4,2.599126E4,1.2620169E4,9.635474E3,1.6355786E4,6.132787E3,6.4873813E3,7.8049077E3,1.8305657E3,2.3339685E2,1.612239E4,3.4103137E3,2.7224736E3,6.4183735E3,6.900825E1,1.4525721E3,6.352336E3,1.7993896E3,3.117603E1,7.137598E1,1.6202087E2,1.3158449E4,2.9639402E3,2.6185603E3,7.9175323E2,2.8741348E2,2.4350603E3,6.380748E3,3.7625366E1,5.064668E1,1.8361568E1],"tree_param":{"num_deleted":"0","num_feature":"67","num_nodes":"31","size_leaf_vector":"1"}},{"base_weights":[8.258653E-3,3.9768958E-1,-8.222324E-1,-1.6785623E-1,5.752619E-1,-4.2511386E-1,-1.2104828E0,1.21888876E-1,-5.9667665E-1,6.839621E-1,1.4358033E-1,1.999282E-1,-5.8780694E-1,-1.2310815E0,3.5149285E-3,1.298388E-2,-2.7258102E-2,-5.8110923E-2,-2.1726066E-2,-8.321362E-2,3.4827843E-2,1.111644E-2,-5.3756297E-2,-3.939448E-2,1.726135E-2,-2.1493647E-2,-5.6700177E-2,-6.298663E-2,-4.2087004E-2,-5.0384033E-2,1.2484991E-1],"categories":[],"categories_nodes":[],"categories_segments":[],"categories_sizes":[],"default_left":[0,0,0,0,0,0,0,0,0,0,0,0,0,0,0,0,0,0,0,0,0,0,0,0,0,0,0,0,0,0,0],"id":17,"left_children":[1,3,5,7,9,11,13,15,17,19,21,23,25,27,29,-1,-1,-1,-1,-1,-1,-1,-1,-1,-1,-1,-1,-1,-1,-1,-1],"loss_changes":[1.2345736E4,2.609837E3,1.878292E3,7.717174E2,9.279336E2,6.128596E2,1.5407324E2,3.4086725E2,2.2916327E2,4.6841797E2,3.8216388E2,1.7899791E2,4.1196704E2,6.652051E1,2.6421808E2,0E0,0E0,0E0,0E0,0E0,0E0,0E0,0E0,0E0,0E0,0E0,0E0,0E0,0E0,0E0,0E0],"parents":[2147483647,0,0,1,1,2,2,3,3,4,4,5,5,6,6,7,7,8,8,9,9,10,10,11,11,12,12,13,13,14,14],"right_children":[2,4,6,8,10,12,14,16,18,20,22,24,26,28,30,-1,-1,-1,-1,-1,-1,-1,-1,-1,-1,-1,-1,-1,-1,-1,-1],"split_conditions":[7.3566666E1,9.446667E0,8.345E-1,8.04E-1,7.2933334E1,7.8816666E1,5.0785627E0,7.6333336E1,4.43E1,6.3616665E1,7.39E2,-2.1666667E0,7.973333E1,9.283334E0,7.6020393E0,1.298388E-2,-2.7258102E-2,-5.8110923E-2,-2.1726066E-2,-8.321362E-2,3.4827843E-2,1.111644E-2,-5.3756297E-2,-3.939448E-2,1.726135E-2,-2.1493647E-2,-5.6700177E-2,-6.298663E-2,-4.2087004E-2,-5.0384033E-2,1.2484991E-1],"split_indices":[28,52,13,0,16,37,54,16,6,37,60,47,28,55,36,0,0,0,0,0,0,0,0,0,0,0,0,0,0,0,0],"split_type":[0,0,0,0,0,0,0,0,0,0,0,0,0,0,0,0,0,0,0,0,0,0,0,0,0,0,0,0,0,0,0],"sum_hessian":[3.8170574E4,2.5985887E4,1.21846875E4,6.2094893E3,1.9776396E4,6.024586E3,6.1601016E3,3.706082E3,2.5034075E3,1.579782E4,3.978576E3,1.2442272E3,4.780359E3,6.0573096E3,1.0279232E2,3.072106E3,6.339759E2,5.564688E2,1.9469387E3,8.358029E1,1.571424E4,3.737866E3,2.4071005E2,1.5897937E2,1.0852478E3,3.7095273E3,1.0708317E3,5.6400327E3,4.172766E2,7.355788E1,2.9234446E1],"tree_param":{"num_deleted":"0","num_feature":"67","num_nodes":"31","size_leaf_vector":"1"}},{"base_weights":[-3.549267E-3,3.5077745E-1,-8.9759123E-1,-1.16309576E-1,5.664978E-1,-4.903108E-1,-1.1732347E0,2.4250095E-1,-3.829392E-1,6.327131E-1,-4.6625562E-2,-2.748798E-1,-8.6998975E-1,-1.1993326E0,2.4102588E-1,2.6564622E-2,-9.039371E-3,-2.8933858E-2,6.5098912E-3,3.304352E-2,-1.50928395E-2,-2.0737581E-2,1.6719019E-2,-3.96867E-2,-3.7093794E-3,-4.7418937E-2,6.5316424E-2,1.5723156E-2,-6.0808867E-2,-2.6488442E-2,7.000489E-2],"categories":[],"categories_nodes":[],"categories_segments":[],"categories_sizes":[],"default_left":[0,0,0,0,0,0,0,0,0,0,0,0,0,0,0,0,0,0,0,0,0,0,0,0,0,0,0,0,0,0,0],"id":18,"left_children":[1,3,5,7,9,11,13,15,17,19,21,23,25,27,29,-1,-1,-1,-1,-1,-1,-1,-1,-1,-1,-1,-1,-1,-1,-1,-1],"loss_changes":[1.1876317E4,2.7054202E3,1.1940244E3,8.1169684E2,7.456968E2,3.512036E2,2.3448926E2,4.4226425E2,4.8894495E2,4.3641895E2,2.5136485E2,2.855402E2,2.665099E2,1.5925781E2,1.04201324E2,0E0,0E0,0E0,0E0,0E0,0E0,0E0,0E0,0E0,0E0,0E0,0E0,0E0,0E0,0E0,0E0],"parents":[2147483647,0,0,1,1,2,2,3,3,4,4,5,5,6,6,7,7,8,8,9,9,10,10,11,11,12,12,13,13,14,14],"right_children":[2,4,6,8,10,12,14,16,18,20,22,24,26,28,30,-1,-1,-1,-1,-1,-1,-1,-1,-1,-1,-1,-1,-1,-1,-1,-1],"split_conditions":[8.1133336E-1,3.69E-1,7.645E1,7.67E-1,7.85E1,7.75E1,4.08E-1,7.5766665E-1,3E0,1.5028334E1,1.111E1,3.12E-1,1.1888333E1,7.19E-1,7.618836E-2,2.6564622E-2,-9.039371E-3,-2.8933858E-2,6.5098912E-3,3.304352E-2,-1.50928395E-2,-2.0737581E-2,1.6719019E-2,-3.96867E-2,-3.7093794E-3,-4.7418937E-2,6.5316424E-2,1.5723156E-2,-6.0808867E-2,-2.6488442E-2,7.000489E-2],"split_indices":[13,22,31,0,1,16,22,10,63,55,7,2,55,0,12,0,0,0,0,0,0,0,0,0,0,0,0,0,0,0,0],"split_type":[0,0,0,0,0,0,0,0,0,0,0,0,0,0,0,0,0,0,0,0,0,0,0,0,0,0,0,0,0,0,0],"sum_hessian":[3.7488402E4,2.6848438E4,1.0639965E4,8.482413E3,1.8366025E4,4.295651E3,6.344314E3,3.616152E3,4.8662607E3,1.6575855E4,1.790169E3,2.7417168E3,1.5539343E3,6.2295103E3,1.148035E2,2.149432E3,1.4667202E3,3.522473E3,1.3437878E3,1.6091339E4,4.845174E2,9.104287E2,8.797403E2,7.6388153E2,1.9778352E3,1.5004535E3,5.348074E1,6.836142E1,6.161149E3,6.927671E1,4.5526787E1],"tree_param":{"num_deleted":"0","num_feature":"67","num_nodes":"31","size_leaf_vector":"1"}},{"base_weights":[6.269205E-3,3.0762488E-1,-9.52912E-1,5.113749E-1,-1.791487E-1,-1.1367571E0,-4.8948634E-1,5.93693E-1,-1.2154894E-1,-1.8830758E-2,-8.363076E-1,-1.1864837E0,-6.79168E-1,-3.3263244E-2,-7.424663E-1,7.5300992E-3,3.30017E-2,-2.1464273E-2,1.9860795E-2,-1.1934982E-2,1.6724234E-2,-4.8922732E-2,1.1508231E-2,-4.3232825E-2,-6.074046E-2,-5.1133584E-2,7.2353804E-3,-2.1016484E-2,6.275735E-2,-4.260474E-2,3.903101E-2],"categories":[],"categories_nodes":[],"categories_segments":[],"categories_sizes":[],"default_left":[0,0,0,0,0,0,0,0,0,0,0,0,0,0,0,0,0,0,0,0,0,0,0,0,0,0,0,0,0,0,0],"id":19,"left_children":[1,3,5,7,9,11,13,15,17,19,21,23,25,27,29,-1,-1,-1,-1,-1,-1,-1,-1,-1,-1,-1,-1,-1,-1,-1,-1],"loss_changes":[1.074621E4,2.8058147E3,7.566797E2,1.039085E3,8.79473E2,1.4397266E2,2.915371E2,5.1864307E2,3.667123E2,5.214728E2,2.4840466E2,5.1253418E1,1.7731006E2,4.5043872E2,2.7200244E2,0E0,0E0,0E0,0E0,0E0,0E0,0E0,0E0,0E0,0E0,0E0,0E0,0E0,0E0,0E0,0E0],"parents":[2147483647,0,0,1,1,2,2,3,3,4,4,5,5,6,6,7,7,8,8,9,9,10,10,11,11,12,12,13,13,14,14],"right_children":[2,4,6,8,10,12,14,16,18,20,22,24,26,28,30,-1,-1,-1,-1,-1,-1,-1,-1,-1,-1,-1,-1,-1,-1,-1,-1],"split_conditions":[7.49E1,7.8566664E-1,8.623333E0,7.85E1,7.82E1,3.4633332E-1,1.21E1,3.28E-1,1.188E1,1.089E1,1.098E1,8.043333E-1,7.3717706E-2,1.08E1,2.1536944E0,7.5300992E-3,3.30017E-2,-2.1464273E-2,1.9860795E-2,-1.1934982E-2,1.6724234E-2,-4.8922732E-2,1.1508231E-2,-4.3232825E-2,-6.074046E-2,-5.1133584E-2,7.2353804E-3,-2.1016484E-2,6.275735E-2,-4.260474E-2,3.903101E-2],"split_indices":[31,10,52,1,16,25,56,2,7,52,55,10,12,56,39,0,0,0,0,0,0,0,0,0,0,0,0,0,0,0,0],"split_type":[0,0,0,0,0,0,0,0,0,0,0,0,0,0,0,0,0,0,0,0,0,0,0,0,0,0,0,0,0,0,0],"sum_hessian":[3.7175066E4,2.8288164E4,8.8869E3,1.9941254E4,8.34691E3,6.3617026E3,2.5251975E3,1.7646244E4,2.2950107E3,6.710798E3,1.6361118E3,5.7366978E3,6.250048E2,9.0116724E2,1.6240302E3,2.2984124E3,1.5347831E4,1.440603E3,8.544078E2,4.13679E3,2.574008E3,1.4437596E3,1.9235213E2,4.666187E2,5.270079E3,4.409256E2,1.8407922E2,6.9349884E2,2.0766838E2,1.5153959E3,1.0863439E2],"tree_param":{"num_deleted":"0","num_feature":"67","num_nodes":"31","size_leaf_vector":"1"}},{"base_weights":[-3.9039666E-3,3.235565E-1,-8.2591075E-1,-1.866025E-1,5.0332326E-1,-3.9062557E-1,-1.078611E0,4.02643E-1,-3.3551607E-1,6.0704356E-1,1.2129581E-1,-1.01467974E-1,-7.538485E-1,-8.7993354E-1,-1.226791E0,2.6509566E-2,-2.4934508E-2,-4.497264E-3,-3.290717E-2,3.149851E-2,-4.2655732E-2,-1.742941E-2,1.4025906E-2,2.3172205E-2,-1.587947E-2,-5.064903E-2,1.1742077E-3,3.872233E-2,-4.556908E-2,-2.9850129E-2,-6.1639663E-2],"categories":[],"categories_nodes":[],"categories_segments":[],"categories_sizes":[],"default_left":[0,0,0,0,0,0,0,0,0,0,0,0,0,0,0,0,0,0,0,0,0,0,0,0,0,0,0,0,0,0,0],"id":20,"left_children":[1,3,5,7,9,11,13,15,17,19,21,23,25,27,29,-1,-1,-1,-1,-1,-1,-1,-1,-1,-1,-1,-1,-1,-1,-1,-1],"loss_changes":[9.842185E3,2.3981045E3,1.1453535E3,5.980237E2,7.660596E2,4.019287E2,1.9292627E2,1.5834468E2,4.309212E2,5.0958887E2,3.0907364E2,2.6046878E2,3.4172455E2,1.473584E2,1.3522949E1,0E0,0E0,0E0,0E0,0E0,0E0,0E0,0E0,0E0,0E0,0E0,0E0,0E0,0E0,0E0,0E0],"parents":[2147483647,0,0,1,1,2,2,3,3,4,4,5,5,6,6,7,7,8,8,9,9,10,10,11,11,12,12,13,13,14,14],"right_children":[2,4,6,8,10,12,14,16,18,20,22,24,26,28,30,-1,-1,-1,-1,-1,-1,-1,-1,-1,-1,-1,-1,-1,-1,-1,-1],"split_conditions":[8.15E-1,9.446667E0,7.55E1,7.62E1,7.06E1,7.496667E1,8.005E1,7.76E1,7.79E-1,5.223333E-1,3.31E-1,6.7433334E1,5.7E1,7.3E-1,7.67E1,2.6509566E-2,-2.4934508E-2,-4.497264E-3,-3.290717E-2,3.149851E-2,-4.2655732E-2,-1.742941E-2,1.4025906E-2,2.3172205E-2,-1.587947E-2,-5.064903E-2,1.1742077E-3,3.872233E-2,-4.556908E-2,-2.9850129E-2,-6.1639663E-2],"split_indices":[10,52,28,4,28,19,31,3,13,25,2,28,57,0,28,0,0,0,0,0,0,0,0,0,0,0,0,0,0,0,0],"split_type":[0,0,0,0,0,0,0,0,0,0,0,0,0,0,0,0,0,0,0,0,0,0,0,0,0,0,0,0,0,0,0],"sum_hessian":[3.656231E4,2.6146863E4,1.0415444E4,6.8128057E3,1.9334059E4,3.8265764E3,6.588867E3,1.3740472E3,5.4387583E3,1.5205249E4,4.1288086E3,2.1312178E3,1.6953588E3,2.817775E3,3.7710925E3,1.2040701E3,1.699771E2,3.0888958E3,2.3498625E3,1.4970755E4,2.3449403E2,1.0446709E3,3.0841377E3,5.894171E2,1.5418007E3,1.2712656E3,4.2409314E2,5.2123142E1,2.7656519E3,3.6549427E1,3.734543E3],"tree_param":{"num_deleted":"0","num_feature":"67","num_nodes":"31","size_leaf_vector":"1"}},{"base_weights":[2.9377048E-3,2.7994102E-1,-9.056699E-1,-1.3657884E-1,5.0474733E-1,-6.382457E-1,-1.2155335E0,7.541439E-2,-6.206808E-1,6.225058E-1,1.6516423E-1,-9.030237E-1,-3.523227E-1,-3.4384304E-1,-1.2202427E0,1.3655836E-2,-1.5899174E-2,-4.0173654E-2,-3.1703475E-3,-4.421346E-2,3.236355E-2,2.5810227E-2,-5.534333E-3,-4.7995508E-2,9.964647E-3,-3.4871824E-2,4.7905883E-3,-6.712765E-2,1.2649575E-1,-6.1260756E-2,-2.9616034E-2],"categories":[],"categories_nodes":[],"categories_segments":[],"categories_sizes":[],"default_left":[0,0,0,0,0,0,0,0,0,0,0,0,0,0,0,0,0,0,0,0,0,0,0,0,0,0,0,0,0,0,0],"id":21,"left_children":[1,3,5,7,9,11,13,15,17,19,21,23,25,27,29,-1,-1,-1,-1,-1,-1,-1,-1,-1,-1,-1,-1,-1,-1,-1,-1],"loss_changes":[9.154655E3,2.6101797E3,7.0342236E2,1.00290186E3,7.238574E2,3.451703E2,1.573584E1,5.287125E2,3.0311096E2,5.0217627E2,4.515868E2,1.4872778E2,3.3966333E2,6.808611E1,1.1495117E1,0E0,0E0,0E0,0E0,0E0,0E0,0E0,0E0,0E0,0E0,0E0,0E0,0E0,0E0,0E0,0E0],"parents":[2147483647,0,0,1,1,2,2,3,3,4,4,5,5,6,6,7,7,8,8,9,9,10,10,11,11,12,12,13,13,14,14],"right_children":[2,4,6,8,10,12,14,16,18,20,22,24,26,28,30,-1,-1,-1,-1,-1,-1,-1,-1,-1,-1,-1,-1,-1,-1,-1,-1],"split_conditions":[7.49E1,1.0106667E1,8.005E1,8.22E-1,7.7933335E-1,8.52E0,7.04E-1,7.56E1,3E0,6.6183334E1,6.786667E1,4.05E-1,3.147278E0,4.883333E0,3.9433333E-1,1.3655836E-2,-1.5899174E-2,-4.0173654E-2,-3.1703475E-3,-4.421346E-2,3.236355E-2,2.5810227E-2,-5.534333E-3,-4.7995508E-2,9.964647E-3,-3.4871824E-2,4.7905883E-3,-6.712765E-2,1.2649575E-1,-6.1260756E-2,-2.9616034E-2],"split_indices":[31,52,31,0,10,52,0,1,63,37,28,22,54,47,22,0,0,0,0,0,0,0,0,0,0,0,0,0,0,0,0],"split_type":[0,0,0,0,0,0,0,0,0,0,0,0,0,0,0,0,0,0,0,0,0,0,0,0,0,0,0,0,0,0,0],"sum_hessian":[3.6371125E4,2.7873992E4,8.497133E3,9.770905E3,1.8103086E4,4.562543E3,3.9345896E3,6.7957993E3,2.975106E3,1.3441199E4,4.6618867E3,2.3677437E3,2.194799E3,2.153952E1,3.91305E3,4.523046E3,2.2727537E3,2.2399387E3,7.3516736E2,2.1678476E2,1.3224414E4,2.0509863E3,2.6109004E3,2.2516726E3,1.1607111E2,1.2396068E3,9.551924E2,1.6379883E1,5.159637E0,3.8813633E3,3.1686964E1],"tree_param":{"num_deleted":"0","num_feature":"67","num_nodes":"31","size_leaf_vector":"1"}},{"base_weights":[-3.2612868E-3,2.6734608E-1,-9.124988E-1,-8.830336E-2,5.061207E-1,-6.325309E-1,-1.1627178E0,1.3512354E-1,-4.467176E-1,-9.16101E-1,5.4491234E-1,-4.939795E-1,-1.1544998E0,-1.1674708E0,1.3265454E0,2.4036117E-2,-3.539699E-3,-4.240263E-2,-1.1569248E-2,-7.288933E-2,1.6638316E-2,3.118818E-2,2.102971E-3,1.9758051E-2,-2.9564416E-2,-6.0355164E-2,4.602032E-2,-5.923906E-2,-3.3182856E-2,1.1921432E-1,-5.1495463E-2],"categories":[],"categories_nodes":[],"categories_segments":[],"categories_sizes":[],"default_left":[0,0,0,0,0,0,0,0,0,0,0,0,0,0,0,0,0,0,0,0,0,0,0,0,0,0,0,0,0,0,0],"id":22,"left_children":[1,3,5,7,9,11,13,15,17,19,21,23,25,27,29,-1,-1,-1,-1,-1,-1,-1,-1,-1,-1,-1,-1,-1,-1,-1,-1],"loss_changes":[8.800603E3,2.340813E3,5.7396094E2,8.867956E2,9.1037695E2,2.7958777E2,5.2789062E1,4.8551093E2,3.6729333E2,2.9696484E2,6.3656006E2,2.6525226E2,8.972156E1,3.6916504E1,2.4194363E1,0E0,0E0,0E0,0E0,0E0,0E0,0E0,0E0,0E0,0E0,0E0,0E0,0E0,0E0,0E0,0E0],"parents":[2147483647,0,0,1,1,2,2,3,3,4,4,5,5,6,6,7,7,8,8,9,9,10,10,11,11,12,12,13,13,14,14],"right_children":[2,4,6,8,10,12,14,16,18,20,22,24,26,28,30,-1,-1,-1,-1,-1,-1,-1,-1,-1,-1,-1,-1,-1,-1,-1,-1],"split_conditions":[7.49E1,3.755E-1,8.05E1,7.56E1,5.7233334E1,8.005E1,5.45E-1,7.525E-1,3.09E-1,6.38E1,8.15E-1,4.33E1,6.2631087E0,6.81E1,3.79E1,2.4036117E-2,-3.539699E-3,-4.240263E-2,-1.1569248E-2,-7.288933E-2,1.6638316E-2,3.118818E-2,2.102971E-3,1.9758051E-2,-2.9564416E-2,-6.0355164E-2,4.602032E-2,-5.923906E-2,-3.3182856E-2,1.1921432E-1,-5.1495463E-2],"split_indices":[31,25,16,1,31,31,2,10,2,19,0,49,51,6,6,0,0,0,0,0,0,0,0,0,0,0,0,0,0,0,0],"split_type":[0,0,0,0,0,0,0,0,0,0,0,0,0,0,0,0,0,0,0,0,0,0,0,0,0,0,0,0,0,0,0],"sum_hessian":[3.576608E4,2.7563371E4,8.202708E3,1.1072203E4,1.6491168E4,3.8728914E3,4.3298164E3,6.820863E3,4.2513403E3,4.3725964E2,1.6053909E4,3.0620476E3,8.1084357E2,4.3220947E3,7.721606E0,2.546181E3,4.2746816E3,1.4834891E3,2.7678513E3,3.0486136E2,1.323983E2,1.3877559E4,2.1763503E3,3.017554E2,2.7602922E3,7.9120306E2,1.9640509E1,4.1772188E3,1.4487584E2,5.321248E0,2.400358E0],"tree_param":{"num_deleted":"0","num_feature":"67","num_nodes":"31","size_leaf_vector":"1"}},{"base_weights":[-6.7541613E-3,3.0891278E-1,-7.3399264E-1,-2.7702093E-1,4.4250962E-1,-3.8685665E-1,-1.0875801E0,-4.6867442E-1,2.2297657E-1,6.174803E-1,2.0139515E-1,-8.0046165E-1,-1.8528542E-1,-1.1147262E0,3.4741357E-1,-1.30984485E-2,-4.730601E-2,-5.4988604E-2,1.7580358E-2,3.350219E-2,-1.80186E-2,1.7041024E-2,-8.848502E-3,-6.1877925E-2,-2.7668769E-2,-3.3755214E-3,-4.8244055E-2,-5.7847153E-2,-3.2167E-2,-6.085373E-2,8.5390255E-2],"categories":[],"categories_nodes":[],"categories_segments":[],"categories_sizes":[],"default_left":[0,0,0,0,0,0,0,0,0,0,0,0,0,0,0,0,0,0,0,0,0,0,0,0,0,0,0,0,0,0,0],"id":23,"left_children":[1,3,5,7,9,11,13,15,17,19,21,23,25,27,29,-1,-1,-1,-1,-1,-1,-1,-1,-1,-1,-1,-1,-1,-1,-1,-1],"loss_changes":[8.101331E3,1.9264375E3,1.3106646E3,4.380021E2,8.453081E2,4.4934595E2,2.0649707E2,3.2580432E2,2.1594846E2,5.970991E2,4.4469418E2,1.9007678E2,3.3288132E2,1.026001E2,2.1277313E2,0E0,0E0,0E0,0E0,0E0,0E0,0E0,0E0,0E0,0E0,0E0,0E0,0E0,0E0,0E0,0E0],"parents":[2147483647,0,0,1,1,2,2,3,3,4,4,5,5,6,6,7,7,8,8,9,9,10,10,11,11,12,12,13,13,14,14],"right_children":[2,4,6,8,10,12,14,16,18,20,22,24,26,28,30,-1,-1,-1,-1,-1,-1,-1,-1,-1,-1,-1,-1,-1,-1,-1,-1],"split_conditions":[7.3566666E1,3.39E-1,8.3183336E-1,3E0,6.936667E1,3.09E-1,5.0785627E0,2E0,5.44E2,4.9733335E-1,7.9425E-1,4E1,8.39E1,9.283334E0,3.2133332E-1,-1.30984485E-2,-4.730601E-2,-5.4988604E-2,1.7580358E-2,3.350219E-2,-1.80186E-2,1.7041024E-2,-8.848502E-3,-6.1877925E-2,-2.7668769E-2,-3.3755214E-3,-4.8244055E-2,-5.7847153E-2,-3.2167E-2,-6.085373E-2,8.5390255E-2],"split_indices":[28,22,13,63,16,2,54,59,60,25,13,57,1,55,25,0,0,0,0,0,0,0,0,0,0,0,0,0,0,0,0],"split_type":[0,0,0,0,0,0,0,0,0,0,0,0,0,0,0,0,0,0,0,0,0,0,0,0,0,0,0,0,0,0,0],"sum_hessian":[3.5287914E4,2.4607357E4,1.0680556E4,4.5687036E3,2.0038654E4,5.390502E3,5.2900537E3,3.302781E3,1.2659226E3,1.1611165E4,8.427488E3,1.7653011E3,3.625201E3,5.192058E3,9.79959E1,2.3059788E3,9.9680225E2,1.1152512E2,1.1543976E3,1.1019155E4,5.920097E2,6.1582935E3,2.269195E3,6.3607416E2,1.1292269E3,3.1503572E3,4.7484378E2,4.763948E3,4.281098E2,4.56279E1,5.2368008E1],"tree_param":{"num_deleted":"0","num_feature":"67","num_nodes":"31","size_leaf_vector":"1"}},{"base_weights":[5.658416E-3,4.1964924E-1,-4.988289E-1,-7.138595E-2,5.148703E-1,-1.9957845E-1,-9.860407E-1,-6.369298E-1,1.2607203E-1,5.425604E-1,-4.8043784E-1,-6.247525E-1,1.647963E-2,-1.0937517E0,-3.5752556E-1,-3.9670516E-2,3.635092E-2,1.0895961E-2,-5.3343207E-2,3.4783807E-2,1.8120063E-2,-7.809731E-2,2.2362398E-2,-3.794382E-2,-8.2595414E-4,-2.0078553E-2,8.470966E-3,-5.7141136E-2,-1.8538447E-2,1.5650963E-2,-3.3075448E-2],"categories":[],"categories_nodes":[],"categories_segments":[],"categories_sizes":[],"default_left":[0,0,0,0,0,0,0,0,0,0,0,0,0,0,0,0,0,0,0,0,0,0,0,0,0,0,0,0,0,0,0],"id":24,"left_children":[1,3,5,7,9,11,13,15,17,19,21,23,25,27,29,-1,-1,-1,-1,-1,-1,-1,-1,-1,-1,-1,-1,-1,-1,-1,-1],"loss_changes":[7.3378696E3,9.0234644E2,2.3086956E3,3.5020142E2,4.457334E2,9.0134015E2,4.0752002E2,1.7378677E2,2.5494905E2,4.3356934E2,4.4018515E2,2.69688E2,4.16086E2,1.8205322E2,1.8019662E2,0E0,0E0,0E0,0E0,0E0,0E0,0E0,0E0,0E0,0E0,0E0,0E0,0E0,0E0,0E0,0E0],"parents":[2147483647,0,0,1,1,2,2,3,3,4,4,5,5,6,6,7,7,8,8,9,9,10,10,11,11,12,12,13,13,14,14],"right_children":[2,4,6,8,10,12,14,16,18,20,22,24,26,28,30,-1,-1,-1,-1,-1,-1,-1,-1,-1,-1,-1,-1,-1,-1,-1,-1],"split_conditions":[7.013333E1,3.39E-1,7.9E1,8.05E0,1.5028334E1,3.28E-1,9.653334E0,6.1633335E1,8.26E1,6.813333E1,5.92E1,1.058E1,5.0433334E1,3.6483333E-1,6.285698E0,-3.9670516E-2,3.635092E-2,1.0895961E-2,-5.3343207E-2,3.4783807E-2,1.8120063E-2,-7.809731E-2,2.2362398E-2,-3.794382E-2,-8.2595414E-4,-2.0078553E-2,8.470966E-3,-5.7141136E-2,-1.8538447E-2,1.5650963E-2,-3.3075448E-2],"split_indices":[28,22,16,7,55,2,52,46,4,16,31,55,46,25,45,0,0,0,0,0,0,0,0,0,0,0,0,0,0,0,0],"split_type":[0,0,0,0,0,0,0,0,0,0,0,0,0,0,0,0,0,0,0,0,0,0,0,0,0,0,0,0,0,0,0],"sum_hessian":[3.5132113E4,1.9296912E4,1.5835204E4,3.1342876E3,1.6162624E4,9.810751E3,6.024453E3,8.1054926E2,2.3237383E3,1.5725583E4,4.3704108E2,3.3050173E3,6.5057334E3,5.142435E3,8.820181E2,7.275039E2,8.304537E1,2.1583767E3,1.6536157E2,8.499266E3,7.226317E3,2.0147507E2,2.35566E2,2.707687E3,5.973302E2,1.7421241E3,4.763609E3,4.8150425E3,3.2739233E2,2.7511755E2,6.069006E2],"tree_param":{"num_deleted":"0","num_feature":"67","num_nodes":"31","size_leaf_vector":"1"}},{"base_weights":[8.933376E-3,2.2826368E-1,-8.711655E-1,-9.515602E-2,4.7891468E-1,-4.756405E-1,-1.0880119E0,9.107692E-2,-5.36104E-1,2.1428098E-1,5.764996E-1,-9.3538326E-1,-2.4118628E-1,-1.1614474E0,-7.3408157E-1,2.3716545E-2,-2.3564452E-3,-1.9154212E-2,-5.79288E-2,1.4333612E-2,-4.1060794E-2,3.1561516E-2,3.6018435E-3,6.9109E-2,-4.9033795E-2,1.4420169E-3,-4.6291266E-2,-3.5986986E-2,-5.8693375E-2,1.0014676E-1,-4.065199E-2],"categories":[],"categories_nodes":[],"categories_segments":[],"categories_sizes":[],"default_left":[0,0,0,0,0,0,0,0,0,0,0,0,0,0,0,0,0,0,0,0,0,0,0,0,0,0,0,0,0,0,0],"id":25,"left_children":[1,3,5,7,9,11,13,15,17,19,21,23,25,27,29,-1,-1,-1,-1,-1,-1,-1,-1,-1,-1,-1,-1,-1,-1,-1,-1],"loss_changes":[6.691804E3,2.249684E3,5.926406E2,9.951211E2,4.036245E2,2.6393597E2,1.1522656E2,4.5131876E2,3.4229187E2,3.1609448E2,3.1530615E2,8.8201355E1,3.0032825E2,1.9436523E1,1.6806332E2,0E0,0E0,0E0,0E0,0E0,0E0,0E0,0E0,0E0,0E0,0E0,0E0,0E0,0E0,0E0,0E0],"parents":[2147483647,0,0,1,1,2,2,3,3,4,4,5,5,6,6,7,7,8,8,9,9,10,10,11,11,12,12,13,13,14,14],"right_children":[2,4,6,8,10,12,14,16,18,20,22,24,26,28,30,-1,-1,-1,-1,-1,-1,-1,-1,-1,-1,-1,-1,-1,-1,-1,-1],"split_conditions":[7.55E1,1.062E1,8.3316666E-1,8.22E-1,-5E-4,2.98E-1,8.196667E0,6.41E1,7.8933334E1,4.7533333E-1,7.47E1,2.042221E-2,2.7E1,1.1590226E0,3.2433334E1,2.3716545E-2,-2.3564452E-3,-1.9154212E-2,-5.79288E-2,1.4333612E-2,-4.1060794E-2,3.1561516E-2,3.6018435E-3,6.9109E-2,-4.9033795E-2,1.4420169E-3,-4.6291266E-2,-3.5986986E-2,-5.8693375E-2,1.0014676E-1,-4.065199E-2],"split_indices":[31,52,13,0,23,2,55,3,16,25,3,24,56,15,46,0,0,0,0,0,0,0,0,0,0,0,0,0,0,0,0],"split_type":[0,0,0,0,0,0,0,0,0,0,0,0,0,0,0,0,0,0,0,0,0,0,0,0,0,0,0,0,0,0,0],"sum_hessian":[3.466472E4,2.7749883E4,6.9148345E3,1.2116437E4,1.5633446E4,2.4497375E3,4.465097E3,8.519182E3,3.597255E3,4.212651E3,1.1420796E4,8.263511E2,1.6233865E3,3.6959565E3,7.691405E2,2.2572485E3,6.261933E3,2.8887424E3,7.085126E2,3.9380652E3,2.7458566E2,1.0302766E4,1.11803E3,1.52742E1,8.1107684E2,1.1648995E3,4.58487E2,1.0269314E2,3.5932634E3,2.0882967E1,7.482575E2],"tree_param":{"num_deleted":"0","num_feature":"67","num_nodes":"31","size_leaf_vector":"1"}},{"base_weights":[1.0055325E-3,3.173186E-1,-6.05552E-1,4.1085964E-1,-2.4810699E-1,-1.9958943E-1,-9.2634374E-1,3.0355612E-2,5.0278383E-1,2.2874174E-1,-4.4693053E-1,1.9340876E-1,-4.291819E-1,-6.310004E-1,-1.127554E0,-1.6506158E-2,1.4636557E-2,2.6846273E-2,-1.7241588E-2,1.9029344E-2,-4.862987E-2,-3.7896432E-2,-4.2301053E-3,-3.512207E-2,1.5952973E-2,-3.179873E-2,-2.7369352E-3,-5.638307E-2,-2.0002482E-2,-5.7464357E-2,2.094211E-2],"categories":[],"categories_nodes":[],"categories_segments":[],"categories_sizes":[],"default_left":[0,0,0,0,0,0,0,0,0,0,0,0,0,0,0,0,0,0,0,0,0,0,0,0,0,0,0,0,0,0,0],"id":26,"left_children":[1,3,5,7,9,11,13,15,17,19,21,23,25,27,29,-1,-1,-1,-1,-1,-1,-1,-1,-1,-1,-1,-1,-1,-1,-1,-1],"loss_changes":[6.5707524E3,1.190617E3,1.5284761E3,6.755488E2,3.0309277E2,4.6770273E2,3.8892578E2,3.5564407E2,4.503606E2,1.7203613E2,2.5412119E2,2.1543118E2,2.5330005E2,3.045609E2,1.3150342E2,0E0,0E0,0E0,0E0,0E0,0E0,0E0,0E0,0E0,0E0,0E0,0E0,0E0,0E0,0E0,0E0],"parents":[2147483647,0,0,1,1,2,2,3,3,4,4,5,5,6,6,7,7,8,8,9,9,10,10,11,11,12,12,13,13,14,14],"right_children":[2,4,6,8,10,12,14,16,18,20,22,24,26,28,30,-1,-1,-1,-1,-1,-1,-1,-1,-1,-1,-1,-1,-1,-1,-1,-1],"split_conditions":[7.965E-1,7.59E1,7.665E1,9.06E0,8.0166664E1,6.85E1,8.425E-1,5.375E1,4.9733335E-1,9E-3,5.3366665E1,3.255E-1,5.2E1,3.8E1,5.21118E0,-1.6506158E-2,1.4636557E-2,2.6846273E-2,-1.7241588E-2,1.9029344E-2,-4.862987E-2,-3.7896432E-2,-4.2301053E-3,-3.512207E-2,1.5952973E-2,-3.179873E-2,-2.7369352E-3,-5.638307E-2,-2.0002482E-2,-5.7464357E-2,2.094211E-2],"split_indices":[13,3,19,7,37,3,13,49,25,11,46,25,57,57,54,0,0,0,0,0,0,0,0,0,0,0,0,0,0,0,0],"split_type":[0,0,0,0,0,0,0,0,0,0,0,0,0,0,0,0,0,0,0,0,0,0,0,0,0,0,0,0,0,0,0],"sum_hessian":[3.424527E4,2.2508047E4,1.1737221E4,1.9313238E4,3.1948079E3,5.1815635E3,6.5556577E3,3.7581924E3,1.5555047E4,9.40061E2,2.254747E3,1.910861E3,3.2707026E3,2.6581184E3,3.8975393E3,1.5830186E3,2.1751738E3,1.4953108E4,6.019382E2,8.3518024E2,1.0488071E2,1.2127302E3,1.0420168E3,2.3448259E2,1.6763784E3,2.1065989E3,1.1641036E3,8.424792E2,1.8156392E3,3.8437756E3,5.376361E1],"tree_param":{"num_deleted":"0","num_feature":"67","num_nodes":"31","size_leaf_vector":"1"}},{"base_weights":[5.8119395E-3,2.0857652E-1,-8.836256E-1,-9.9152364E-2,4.4343206E-1,2.2233166E-2,-9.7006243E-1,6.938332E-2,-4.9528685E-1,5.561055E-1,1.924108E-1,4.194344E-1,-8.6527395E-1,-7.659596E-1,-1.1490749E0,1.2209322E-2,-1.1359618E-2,1.1096854E-2,-3.0545602E-2,2.5401288E-3,3.2357696E-2,-3.7570426E-3,2.069023E-2,3.433967E-2,-7.1101435E-2,-4.976512E-2,1.3713372E-1,-2.861822E-2,-5.832836E-2,-3.9072083E-3,-5.7763547E-2],"categories":[],"categories_nodes":[],"categories_segments":[],"categories_sizes":[],"default_left":[0,0,0,0,0,0,0,0,0,0,0,0,0,0,0,0,0,0,0,0,0,0,0,0,0,0,0,0,0,0,0],"id":27,"left_children":[1,3,5,7,9,11,13,15,17,19,21,23,25,27,29,-1,-1,-1,-1,-1,-1,-1,-1,-1,-1,-1,-1,-1,-1,-1,-1],"loss_changes":[6.1360806E3,2.002508E3,4.945962E2,8.007774E2,4.4435376E2,1.9466785E2,2.0980127E2,4.363065E2,2.9701337E2,4.9894165E2,2.8849768E2,1.8877594E2,8.283069E1,2.0852405E2,2.0280273E1,0E0,0E0,0E0,0E0,0E0,0E0,0E0,0E0,0E0,0E0,0E0,0E0,0E0,0E0,0E0,0E0],"parents":[2147483647,0,0,1,1,2,2,3,3,4,4,5,5,6,6,7,7,8,8,9,9,10,10,11,11,12,12,13,13,14,14],"right_children":[2,4,6,8,10,12,14,16,18,20,22,24,26,28,30,-1,-1,-1,-1,-1,-1,-1,-1,-1,-1,-1,-1,-1,-1,-1,-1],"split_conditions":[7.565E1,1.058E1,7.8933334E1,8.22E-1,7.0683334E1,8.193333E-1,8.005E1,7.8033334E-1,6.35E1,6.996667E-1,3.94E-1,7.8333336E1,2.4112341E0,2.7E1,7.04E-1,1.2209322E-2,-1.1359618E-2,1.1096854E-2,-3.0545602E-2,2.5401288E-3,3.2357696E-2,-3.7570426E-3,2.069023E-2,3.433967E-2,-7.1101435E-2,-4.976512E-2,1.3713372E-1,-2.861822E-2,-5.832836E-2,-3.9072083E-3,-5.7763547E-2],"split_indices":[31,52,34,0,19,13,31,10,3,13,2,31,39,56,0,0,0,0,0,0,0,0,0,0,0,0,0,0,0,0,0],"split_type":[0,0,0,0,0,0,0,0,0,0,0,0,0,0,0,0,0,0,0,0,0,0,0,0,0,0,0,0,0,0,0],"sum_hessian":[3.4021832E4,2.7706389E4,6.3154443E3,1.1992852E4,1.5713536E4,5.5019E2,5.7652544E3,8.413954E3,3.578898E3,1.0844609E4,4.8689272E3,3.804487E2,1.6974132E2,2.6963098E3,3.0689443E3,5.293888E3,3.120066E3,4.967339E2,3.082164E3,1.6559476E3,9.188661E3,2.2049424E3,2.6639849E3,3.327625E2,4.7686203E1,1.6453568E2,5.2056394E0,1.8194717E3,8.768382E2,1.7731678E1,3.0512126E3],"tree_param":{"num_deleted":"0","num_feature":"67","num_nodes":"31","size_leaf_vector":"1"}},{"base_weights":[9.4086155E-3,2.2870746E-1,-7.459839E-1,4.2416704E-1,-8.662659E-2,-4.117925E-1,-1.0958498E0,1.8430454E-1,5.49145E-1,1.3268135E-1,-4.0804046E-1,-8.202457E-1,-1.9515589E-1,-1.1183935E0,4.3667158E-1,2.6416946E-2,9.1730244E-4,-3.831777E-2,2.8759945E-2,-1.0540086E-2,1.5949382E-2,-3.4236383E-2,-7.457055E-3,-4.5356862E-2,5.1805187E-2,-1.4321752E-3,-3.6818E-2,-5.644515E-2,4.532025E-2,-3.1168014E-2,1.3610743E-1],"categories":[],"categories_nodes":[],"categories_segments":[],"categories_sizes":[],"default_left":[0,0,0,0,0,0,0,0,0,0,0,0,0,0,0,0,0,0,0,0,0,0,0,0,0,0,0,0,0,0,0],"id":28,"left_children":[1,3,5,7,9,11,13,15,17,19,21,23,25,27,29,-1,-1,-1,-1,-1,-1,-1,-1,-1,-1,-1,-1,-1,-1,-1,-1],"loss_changes":[5.573055E3,1.6070415E3,8.845635E2,4.824187E2,7.03379E2,3.4254193E2,1.2822559E2,3.1488794E2,3.6311914E2,3.796582E2,2.8980835E2,2.173949E2,2.2815762E2,7.856641E1,1.3329428E2,0E0,0E0,0E0,0E0,0E0,0E0,0E0,0E0,0E0,0E0,0E0,0E0,0E0,0E0,0E0,0E0],"parents":[2147483647,0,0,1,1,2,2,3,3,4,4,5,5,6,6,7,7,8,8,9,9,10,10,11,11,12,12,13,13,14,14],"right_children":[2,4,6,8,10,12,14,16,18,20,22,24,26,28,30,-1,-1,-1,-1,-1,-1,-1,-1,-1,-1,-1,-1,-1,-1,-1,-1],"split_conditions":[7.665E1,6.99E1,8.411667E-1,3.93E-1,8E-1,3.17E-1,5.21118E0,6.1E1,6.6183334E1,9.6E0,5.1683334E1,1.9088993E0,8.35E1,5.24E-1,1.1324443E1,2.6416946E-2,9.1730244E-4,-3.831777E-2,2.8759945E-2,-1.0540086E-2,1.5949382E-2,-3.4236383E-2,-7.457055E-3,-4.5356862E-2,5.1805187E-2,-1.4321752E-3,-3.6818E-2,-5.644515E-2,4.532025E-2,-3.1168014E-2,1.3610743E-1],"split_indices":[19,3,13,2,0,22,54,3,37,7,49,42,1,2,18,0,0,0,0,0,0,0,0,0,0,0,0,0,0,0,0],"split_type":[0,0,0,0,0,0,0,0,0,0,0,0,0,0,0,0,0,0,0,0,0,0,0,0,0,0,0,0,0,0,0],"sum_hessian":[3.3640164E4,2.60719E4,7.568265E3,1.609505E4,9.976851E3,3.871955E3,3.6963098E3,5.5142876E3,1.0580762E4,5.930752E3,4.0460984E3,1.340933E3,2.5310222E3,3.6429907E3,5.3318974E1,1.7937123E3,3.7205752E3,2.0493398E2,1.0375828E4,2.085568E3,3.8451836E3,1.955065E3,2.0910334E3,1.281462E3,5.9471004E1,1.9363254E3,5.946967E2,3.6246199E3,1.8370811E1,3.692156E1,1.6397415E1],"tree_param":{"num_deleted":"0","num_feature":"67","num_nodes":"31","size_leaf_vector":"1"}},{"base_weights":[-1.0701928E-3,2.2667152E-1,-7.159914E-1,-4.4394556E-2,4.3991724E-1,-3.8972032E-1,-1.0505142E0,-2.4509604E-1,2.559615E-1,-1.7396468E0,4.5911154E-1,-6.4773166E-1,6.1663345E-2,-1.0654212E0,1.3173777E0,-1.9599E-2,7.20789E-3,1.7289707E-2,-2.1691486E-2,2.8624902E-2,-9.716961E-2,2.8372059E-2,8.588157E-3,-1.9155346E-2,-5.0110485E-2,-6.394168E-3,3.5937157E-2,3.661915E-2,-5.38051E-2,-5.2718557E-2,9.901379E-2],"categories":[],"categories_nodes":[],"categories_segments":[],"categories_sizes":[],"default_left":[0,0,0,0,0,0,0,0,0,0,0,0,0,0,0,0,0,0,0,0,0,0,0,0,0,0,0,0,0,0,0],"id":29,"left_children":[1,3,5,7,9,11,13,15,17,19,21,23,25,27,29,-1,-1,-1,-1,-1,-1,-1,-1,-1,-1,-1,-1,-1,-1,-1,-1],"loss_changes":[5.401278E3,1.4543165E3,8.743452E2,6.679075E2,5.899033E2,4.7275177E2,1.4106738E2,3.7978918E2,2.7516165E2,5.912027E1,4.3443628E2,2.4188855E2,1.8406972E2,7.629883E1,4.1708893E1,0E0,0E0,0E0,0E0,0E0,0E0,0E0,0E0,0E0,0E0,0E0,0E0,0E0,0E0,0E0,0E0],"parents":[2147483647,0,0,1,1,2,2,3,3,4,4,5,5,6,6,7,7,8,8,9,9,10,10,11,11,12,12,13,13,14,14],"right_children":[2,4,6,8,10,12,14,16,18,20,22,24,26,28,30,-1,-1,-1,-1,-1,-1,-1,-1,-1,-1,-1,-1,-1,-1,-1,-1],"split_conditions":[8.1866664E-1,1.0463333E1,7.753333E1,4.01E-1,5.6416668E1,5.46E1,5.24E-1,3E0,7.77E1,1.1956667E1,1.8333334E-1,7.6333336E1,5.8E1,-6.7666665E-2,3.7333333E-1,-1.9599E-2,7.20789E-3,1.7289707E-2,-2.1691486E-2,2.8624902E-2,-9.716961E-2,2.8372059E-2,8.588157E-3,-1.9155346E-2,-5.0110485E-2,-6.394168E-3,3.5937157E-2,3.661915E-2,-5.38051E-2,-5.2718557E-2,9.901379E-2],"split_indices":[10,55,28,2,19,49,2,63,3,55,17,19,57,8,25,0,0,0,0,0,0,0,0,0,0,0,0,0,0,0,0],"split_type":[0,0,0,0,0,0,0,0,0,0,0,0,0,0,0,0,0,0,0,0,0,0,0,0,0,0,0,0,0,0,0],"sum_hessian":[3.3171848E4,2.5158244E4,8.013602E3,1.1077692E4,1.4080553E4,4.0579329E3,3.9556692E3,6.640569E3,4.437123E3,1.2213527E2,1.3958418E4,2.581761E3,1.476172E3,3.9314685E3,2.4200518E1,4.8212686E3,1.8193005E3,3.926294E3,5.108289E2,9.74436E0,1.1239091E2,1.0136143E4,3.822275E3,1.4794232E3,1.1023376E3,1.1463048E3,3.2986722E2,2.2819862E1,3.9086487E3,5.1574388E0,1.904308E1],"tree_param":{"num_deleted":"0","num_feature":"67","num_nodes":"31","size_leaf_vector":"1"}},{"base_weights":[-2.4745201E-3,1.7515911E-1,-8.498916E-1,3.4532422E-1,-1.9671276E-1,-9.416774E-1,2.3324402E-1,-1.409323E-2,4.3863136E-1,3.25742E-1,-3.4935415E-1,-1.0844387E0,-6.426816E-1,-1.26491E0,5.585144E-1,-1.4377522E-2,1.2449331E-2,-5.0280064E-2,2.290974E-2,-2.9539881E-2,2.194949E-2,-2.6606828E-2,-1.0141375E-3,-4.456602E-2,-5.7820946E-2,1.2395645E-2,-3.9614286E-2,-8.350294E-2,3.098458E-2,4.191766E-2,-2.117422E-2],"categories":[],"categories_nodes":[],"categories_segments":[],"categories_sizes":[],"default_left":[0,0,0,0,0,0,0,0,0,0,0,0,0,0,0,0,0,0,0,0,0,0,0,0,0,0,0,0,0,0,0],"id":30,"left_children":[1,3,5,7,9,11,13,15,17,19,21,23,25,27,29,-1,-1,-1,-1,-1,-1,-1,-1,-1,-1,-1,-1,-1,-1,-1,-1],"loss_changes":[4.935914E3,1.7154506E3,5.6513525E2,6.2371826E2,6.788363E2,2.229126E2,2.17415E2,2.7589908E2,4.1763574E2,2.0005026E2,3.9618585E2,4.823584E1,2.2608551E2,6.183995E1,1.0095232E2,0E0,0E0,0E0,0E0,0E0,0E0,0E0,0E0,0E0,0E0,0E0,0E0,0E0,0E0,0E0,0E0],"parents":[2147483647,0,0,1,1,2,2,3,3,4,4,5,5,6,6,7,7,8,8,9,9,10,10,11,11,12,12,13,13,14,14],"right_children":[2,4,6,8,10,12,14,16,18,20,22,24,26,28,30,-1,-1,-1,-1,-1,-1,-1,-1,-1,-1,-1,-1,-1,-1,-1,-1],"split_conditions":[7.8933334E1,7.8566664E-1,1.133E1,9.06E0,6.7433334E1,8.23E0,0E0,3.86E-1,6.6183334E1,8.971666E0,5.2E1,1E0,7.37E1,6.2E1,6.7175145E0,-1.4377522E-2,1.2449331E-2,-5.0280064E-2,2.290974E-2,-2.9539881E-2,2.194949E-2,-2.6606828E-2,-1.0141375E-3,-4.456602E-2,-5.7820946E-2,1.2395645E-2,-3.9614286E-2,-8.350294E-2,3.098458E-2,4.191766E-2,-2.117422E-2],"split_indices":[16,13,52,7,28,52,47,2,37,55,57,63,1,57,27,0,0,0,0,0,0,0,0,0,0,0,0,0,0,0,0],"split_type":[0,0,0,0,0,0,0,0,0,0,0,0,0,0,0,0,0,0,0,0,0,0,0,0,0,0,0,0,0,0,0],"sum_hessian":[3.2788293E4,2.7106982E4,5.6813105E3,1.8597164E4,8.509817E3,5.237602E3,4.4370807E2,3.8330752E3,1.4764089E4,1.9238403E3,6.585977E3,3.543205E3,1.6943972E3,7.863526E1,3.650728E2,1.8794235E3,1.9536516E3,1.966464E2,1.4567442E4,2.1110487E2,1.7127355E3,4.2337354E3,2.3522417E3,9.6569495E2,2.57751E3,2.4359827E2,1.450799E3,6.481522E1,1.3820041E1,2.8422415E2,8.0848656E1],"tree_param":{"num_deleted":"0","num_feature":"67","num_nodes":"31","size_leaf_vector":"1"}},{"base_weights":[1.6099637E-3,2.6020157E-1,-5.448372E-1,3.4882548E-1,-2.4738471E-1,-3.0747357E-1,-1.0439875E0,2.1017214E-2,4.2515898E-1,-4.7528204E-1,1.2058795E-1,-6.9134295E-1,-1.2369867E-1,4.4487813E-1,-1.0620656E0,-1.1590531E-2,1.8437712E-2,2.2863133E-2,-1.7206829E-2,-3.360662E-2,2.4380337E-3,1.01424E-2,-6.1694898E-2,-4.622098E-2,-1.3668154E-2,-2.8082102E-3,-5.8500487E-2,1.2602739E-1,-5.6704726E-2,-3.5334703E-2,-5.568244E-2],"categories":[],"categories_nodes":[],"categories_segments":[],"categories_sizes":[],"default_left":[0,0,0,0,0,0,0,0,0,0,0,0,0,0,0,0,0,0,0,0,0,0,0,0,0,0,0,0,0,0,0],"id":31,"left_children":[1,3,5,7,9,11,13,15,17,19,21,23,25,27,29,-1,-1,-1,-1,-1,-1,-1,-1,-1,-1,-1,-1,-1,-1,-1,-1],"loss_changes":[4.591775E3,9.9231116E2,1.2363704E3,4.6988965E2,2.7505756E2,4.990551E2,9.1004395E1,3.120141E2,3.7634326E2,2.0895691E2,1.4008194E2,2.2288635E2,3.3812143E2,1.374146E2,6.0136475E1,0E0,0E0,0E0,0E0,0E0,0E0,0E0,0E0,0E0,0E0,0E0,0E0,0E0,0E0,0E0,0E0],"parents":[2147483647,0,0,1,1,2,2,3,3,4,4,5,5,6,6,7,7,8,8,9,9,10,10,11,11,12,12,13,13,14,14],"right_children":[2,4,6,8,10,12,14,16,18,20,22,24,26,28,30,-1,-1,-1,-1,-1,-1,-1,-1,-1,-1,-1,-1,-1,-1,-1,-1],"split_conditions":[7.98E-1,7.85E1,8.495E-1,3.49E-1,5.5783333E1,-3.3333333E-4,2.1786846E-1,1E0,4.9733335E-1,3E0,8.14E1,9.64E0,8.005E1,3.737245E0,7.6333336E1,-1.1590531E-2,1.8437712E-2,2.2863133E-2,-1.7206829E-2,-3.360662E-2,2.4380337E-3,1.01424E-2,-6.1694898E-2,-4.622098E-2,-1.3668154E-2,-2.8082102E-3,-5.8500487E-2,1.2602739E-1,-5.6704726E-2,-3.5334703E-2,-5.568244E-2],"split_indices":[13,1,13,22,49,23,42,64,25,63,4,55,31,30,19,0,0,0,0,0,0,0,0,0,0,0,0,0,0,0,0],"split_type":[0,0,0,0,0,0,0,0,0,0,0,0,0,0,0,0,0,0,0,0,0,0,0,0,0,0,0,0,0,0,0],"sum_hessian":[3.2493104E4,2.2056143E4,1.0436961E4,1.8777865E4,3.2782786E3,7.0744336E3,3.3625269E3,3.5469663E3,1.5230898E4,2.0242831E3,1.2539955E3,2.2894543E3,4.7849795E3,4.0055416E1,3.3224717E3,2.0539453E3,1.4930209E3,1.4621145E4,6.097538E2,1.4713177E3,5.529653E2,1.1830002E3,7.09952E1,1.4690575E3,8.20397E2,4.495847E3,2.891321E2,1.7048134E1,2.3007284E1,4.23E2,2.8994714E3],"tree_param":{"num_deleted":"0","num_feature":"67","num_nodes":"31","size_leaf_vector":"1"}},{"base_weights":[1.1100604E-3,1.5225598E-1,-8.7933224E-1,3.1457484E-1,-1.7393517E-1,-5.111714E-1,-1.0578173E0,1.2006182E-3,4.2198676E-1,-8.5026205E-2,-8.6694455E-1,3.0650136E-1,-6.712303E-1,-1.0833517E0,9.096782E-1,2.931635E-2,-7.486625E-3,2.3225557E-2,-1.38125215E-2,1.6994575E-2,-9.601664E-3,-4.944194E-2,1.637734E-2,-4.5061585E-2,3.4744125E-2,-4.584069E-2,-3.2476757E-3,-5.4502644E-2,9.963628E-2,-5.749637E-2,1.0135441E-1],"categories":[],"categories_nodes":[],"categories_segments":[],"categories_sizes":[],"default_left":[0,0,0,0,0,0,0,0,0,0,0,0,0,0,0,0,0,0,0,0,0,0,0,0,0,0,0,0,0,0,0],"id":32,"left_children":[1,3,5,7,9,11,13,15,17,19,21,23,25,27,29,-1,-1,-1,-1,-1,-1,-1,-1,-1,-1,-1,-1,-1,-1,-1,-1],"loss_changes":[4.273103E3,1.4511024E3,3.0861353E2,6.15975E2,5.6104065E2,2.0150302E2,1.6012549E2,4.1272275E2,4.047881E2,3.6711197E2,1.510788E2,1.1905312E2,1.9150464E2,6.664014E1,9.6982376E1,0E0,0E0,0E0,0E0,0E0,0E0,0E0,0E0,0E0,0E0,0E0,0E0,0E0,0E0,0E0,0E0],"parents":[2147483647,0,0,1,1,2,2,3,3,4,4,5,5,6,6,7,7,8,8,9,9,10,10,11,11,12,12,13,13,14,14],"right_children":[2,4,6,8,10,12,14,16,18,20,22,24,26,28,30,-1,-1,-1,-1,-1,-1,-1,-1,-1,-1,-1,-1,-1,-1,-1,-1],"split_conditions":[7.653333E1,7.8566664E-1,8.336667E-1,5.2466667E1,8.05E1,7.915E1,1.159E1,7.36E1,4.885E-1,6.35E1,1.1028334E1,5.4151025E0,7.3717706E-2,4.4333333E-1,7.65E-1,2.931635E-2,-7.486625E-3,2.3225557E-2,-1.38125215E-2,1.6994575E-2,-9.601664E-3,-4.944194E-2,1.637734E-2,-4.5061585E-2,3.4744125E-2,-4.584069E-2,-3.2476757E-3,-5.4502644E-2,9.963628E-2,-5.749637E-2,1.0135441E-1],"split_indices":[31,10,10,46,16,37,52,4,25,3,55,15,12,25,53,0,0,0,0,0,0,0,0,0,0,0,0,0,0,0,0],"split_type":[0,0,0,0,0,0,0,0,0,0,0,0,0,0,0,0,0,0,0,0,0,0,0,0,0,0,0,0,0,0,0],"sum_hessian":[3.2108416E4,2.7404672E4,4.7037446E3,1.8298854E4,9.105818E3,1.5370786E3,3.1666663E3,4.671312E3,1.3627541E4,8.071426E3,1.0343932E3,2.5147668E2,1.2856019E3,3.126539E3,4.01273E1,9.572871E2,3.714025E3,1.284555E4,7.81991E2,1.6232874E3,6.448138E3,9.3876697E2,9.562619E1,6.0870293E1,1.906064E2,9.1461017E2,3.7099176E2,3.120387E3,6.151951E0,1.4103213E1,2.6024086E1],"tree_param":{"num_deleted":"0","num_feature":"67","num_nodes":"31","size_leaf_vector":"1"}},{"base_weights":[-4.027557E-3,1.421092E-1,-8.782227E-1,-2.8670155E-2,4.5703778E-1,-6.1597085E-1,-1.0971377E0,3.6376324E-1,-1.60197E-1,-8.623752E-1,4.9284518E-1,-4.5935258E-1,-1.1034157E0,-1.1142932E0,2.477223E-1,2.305177E-2,-9.594737E-3,-1.4810021E-3,-2.2691935E-2,-8.5282706E-2,2.7626236E-3,2.9121432E-2,1.3202155E-2,-2.671795E-2,4.691018E-2,4.8387423E-2,-5.747304E-2,-5.6113113E-2,-1.819695E-2,1.4493732E-1,-5.5003572E-2],"categories":[],"categories_nodes":[],"categories_segments":[],"categories_sizes":[],"default_left":[0,0,0,0,0,0,0,0,0,0,0,0,0,0,0,0,0,0,0,0,0,0,0,0,0,0,0,0,0,0,0],"id":33,"left_children":[1,3,5,7,9,11,13,15,17,19,21,23,25,27,29,-1,-1,-1,-1,-1,-1,-1,-1,-1,-1,-1,-1,-1,-1,-1,-1],"loss_changes":[4.0567344E3,1.4632798E3,2.6043262E2,9.1063477E2,4.523772E2,1.576372E2,5.7438232E1,2.3946313E2,5.0663977E2,1.959624E2,1.9075562E2,1.6502328E2,4.908368E1,1.4220459E1,1.1761414E2,0E0,0E0,0E0,0E0,0E0,0E0,0E0,0E0,0E0,0E0,0E0,0E0,0E0,0E0,0E0,0E0],"parents":[2147483647,0,0,1,1,2,2,3,3,4,4,5,5,6,6,7,7,8,8,9,9,10,10,11,11,12,12,13,13,14,14],"right_children":[2,4,6,8,10,12,14,16,18,20,22,24,26,28,30,-1,-1,-1,-1,-1,-1,-1,-1,-1,-1,-1,-1,-1,-1,-1,-1],"split_conditions":[7.653333E1,4.2066666E-1,8.005E1,6.39E1,5.3666668E1,8.103333E1,6.2631087E0,7.513333E1,8.22E-1,6.155E1,3.3333335E-2,2.0400326E0,3.2433334E1,3.9433333E-1,7.645E-1,2.305177E-2,-9.594737E-3,-1.4810021E-3,-2.2691935E-2,-8.5282706E-2,2.7626236E-3,2.9121432E-2,1.3202155E-2,-2.671795E-2,4.691018E-2,4.8387423E-2,-5.747304E-2,-5.6113113E-2,-1.819695E-2,1.4493732E-1,-5.5003572E-2],"split_indices":[31,22,31,3,28,34,51,16,0,19,29,39,46,22,10,0,0,0,0,0,0,0,0,0,0,0,0,0,0,0,0],"split_type":[0,0,0,0,0,0,0,0,0,0,0,0,0,0,0,0,0,0,0,0,0,0,0,0,0,0,0,0,0,0,0],"sum_hessian":[3.1752775E4,2.7205709E4,4.5470654E3,1.7640521E4,9.5651875E3,2.0704998E3,2.4765657E3,4.42776E3,1.3212763E4,2.521198E2,9.313068E3,1.5684818E3,5.020179E2,2.4455408E3,3.10247E1,3.7682664E3,6.594934E2,9.14656E3,4.066203E3,1.3093488E2,1.2118491E2,6.6915586E3,2.6215093E3,1.4891758E3,7.930594E1,1.0482552E1,4.9153537E2,2.4193508E3,2.6190002E1,1.0068962E1,2.0955738E1],"tree_param":{"num_deleted":"0","num_feature":"67","num_nodes":"31","size_leaf_vector":"1"}},{"base_weights":[9.079476E-3,1.4823315E-1,-8.6020064E-1,-5.538172E-2,3.8060337E-1,-9.796895E-1,-2.302708E-1,4.2962515E-1,-1.4635773E-1,4.0874562E-1,-5.357843E-1,-6.379127E-1,-1.0831105E0,3.1801E-2,-1.0529919E0,2.8533408E-2,-3.8741843E-3,-3.8997119E-3,-4.404816E-2,2.632293E-2,1.0258458E-2,-8.684795E-2,1.2993254E-2,-4.4452023E-2,2.027075E-2,3.638591E-2,-5.45486E-2,-1.3829293E-2,4.433079E-2,1.4869963E-1,-5.9541743E-2],"categories":[],"categories_nodes":[],"categories_segments":[],"categories_sizes":[],"default_left":[0,0,0,0,0,0,0,0,0,0,0,0,0,0,0,0,0,0,0,0,0,0,0,0,0,0,0,0,0,0,0],"id":34,"left_children":[1,3,5,7,9,11,13,15,17,19,21,23,25,27,29,-1,-1,-1,-1,-1,-1,-1,-1,-1,-1,-1,-1,-1,-1,-1,-1],"loss_changes":[3.815382E3,1.286448E3,3.273794E2,6.395104E2,3.276914E2,1.2861377E2,1.4994128E2,1.6378186E2,6.128085E2,2.9513013E2,3.624479E2,2.2365341E2,4.0752197E1,1.3950438E2,9.6795074E1,0E0,0E0,0E0,0E0,0E0,0E0,0E0,0E0,0E0,0E0,0E0,0E0,0E0,0E0,0E0,0E0],"parents":[2147483647,0,0,1,1,2,2,3,3,4,4,5,5,6,6,7,7,8,8,9,9,10,10,11,11,12,12,13,13,14,14],"right_children":[2,4,6,8,10,12,14,16,18,20,22,24,26,28,30,-1,-1,-1,-1,-1,-1,-1,-1,-1,-1,-1,-1,-1,-1,-1,-1],"split_conditions":[8.345E-1,1.1076667E1,9.283334E0,7.36E1,5.086667E-1,7.61E1,8.82E-1,7.92E-1,7.39E2,6.73E1,6.933333E-1,6.6909766E0,7.7E1,1.0443339E1,7E-3,2.8533408E-2,-3.8741843E-3,-3.8997119E-3,-4.404816E-2,2.632293E-2,1.0258458E-2,-8.684795E-2,1.2993254E-2,-4.4452023E-2,2.027075E-2,3.638591E-2,-5.45486E-2,-1.3829293E-2,4.433079E-2,1.4869963E-1,-5.9541743E-2],"split_indices":[13,52,55,4,25,31,0,10,60,28,13,36,37,15,9,0,0,0,0,0,0,0,0,0,0,0,0,0,0,0,0],"split_type":[0,0,0,0,0,0,0,0,0,0,0,0,0,0,0,0,0,0,0,0,0,0,0,0,0,0,0,0,0,0,0],"sum_hessian":[3.153954E4,2.7188117E4,4.3514224E3,1.449106E4,1.2697057E4,3.657156E3,6.942665E2,2.288263E3,1.2202797E4,1.2319286E4,3.777708E2,8.5123517E2,2.8059207E3,5.272699E2,1.6699663E2,1.7902205E3,4.980423E2,1.1164883E4,1.0379147E3,7.8047812E3,4.5145044E3,1.5005418E2,2.2771664E2,6.8621246E2,1.650227E2,1.1733102E1,2.7941877E3,3.8797772E2,1.3929214E2,4.846101E0,1.6215053E2],"tree_param":{"num_deleted":"0","num_feature":"67","num_nodes":"31","size_leaf_vector":"1"}},{"base_weights":[-8.90735E-3,1.3633712E-1,-7.771199E-1,-2.1986963E-1,2.8303388E-1,-1.002764E0,-4.0755412E-1,-1.2951474E-2,-5.357637E-1,4.210063E-1,9.666377E-2,-1.0929419E0,-3.1125194E-1,-6.7885137E-1,5.8291525E-2,1.2925389E-2,-1.0912986E-2,-3.181615E-2,7.5775394E-3,-7.635663E-3,2.4027308E-2,2.873838E-2,6.101738E-4,-3.2554117E-3,-5.538964E-2,-5.2288026E-2,4.2701166E-2,4.965188E-3,-4.656559E-2,6.670335E-2,-1.2313019E-2],"categories":[],"categories_nodes":[],"categories_segments":[],"categories_sizes":[],"default_left":[0,0,0,0,0,0,0,0,0,0,0,0,0,0,0,0,0,0,0,0,0,0,0,0,0,0,0,0,0,0,0],"id":35,"left_children":[1,3,5,7,9,11,13,15,17,19,21,23,25,27,29,-1,-1,-1,-1,-1,-1,-1,-1,-1,-1,-1,-1,-1,-1,-1,-1],"loss_changes":[3.472037E3,1.3675396E3,4.1219263E2,4.989986E2,4.766029E2,1.9119067E2,2.3731122E2,2.5719577E2,2.0892639E2,3.6389844E2,3.184567E2,4.139624E1,3.0536075E2,2.3318976E2,2.6915137E2,0E0,0E0,0E0,0E0,0E0,0E0,0E0,0E0,0E0,0E0,0E0,0E0,0E0,0E0,0E0,0E0],"parents":[2147483647,0,0,1,1,2,2,3,3,4,4,5,5,6,6,7,7,8,8,9,9,10,10,11,11,12,12,13,13,14,14],"right_children":[2,4,6,8,10,12,14,16,18,20,22,24,26,28,30,-1,-1,-1,-1,-1,-1,-1,-1,-1,-1,-1,-1,-1,-1,-1,-1],"split_conditions":[8.28E-1,9.446667E0,8.111667E0,8.03E-1,7.633333E-1,3.3966666E-1,5.2E1,6.935E1,4.08E-1,5.8366665E1,7.2933334E1,8.2916665E-1,5.5E1,-3.2E0,5.4E1,1.2925389E-2,-1.0912986E-2,-3.181615E-2,7.5775394E-3,-7.635663E-3,2.4027308E-2,2.873838E-2,6.101738E-4,-3.2554117E-3,-5.538964E-2,-5.2288026E-2,4.2701166E-2,4.965188E-3,-4.656559E-2,6.670335E-2,-1.2313019E-2],"split_indices":[13,52,55,0,10,25,57,19,22,31,34,13,57,14,57,0,0,0,0,0,0,0,0,0,0,0,0,0,0,0,0],"split_type":[0,0,0,0,0,0,0,0,0,0,0,0,0,0,0,0,0,0,0,0,0,0,0,0,0,0,0,0,0,0,0],"sum_hessian":[3.1115455E4,2.6168625E4,4.9468296E3,7.633232E3,1.8535393E4,3.0704224E3,1.876407E3,4.612787E3,3.020445E3,1.0649879E4,7.885514E3,2.7156963E3,3.547261E2,1.1855272E3,6.908797E2,1.9862721E3,2.626515E3,2.6349985E3,3.8544635E2,1.00116797E3,9.648711E3,1.1830164E3,6.702498E3,3.8756012E1,2.6769402E3,2.1764215E2,1.3708394E2,2.9055627E2,8.94971E2,1.3249104E2,5.583887E2],"tree_param":{"num_deleted":"0","num_feature":"67","num_nodes":"31","size_leaf_vector":"1"}},{"base_weights":[1.0737942E-2,1.3654774E-1,-8.175093E-1,3.1490955E-1,-1.1670165E-1,-9.452696E-1,-2.1772636E-1,3.717337E-1,-1.1308808E-1,-2.7125335E-1,2.6058438E-1,-5.1723987E-1,-1.0386685E0,5.7048714E-1,-4.7752765E-1,1.9881425E-2,-2.6964039E-2,-2.1856697E-2,6.899436E-3,-1.8119913E-2,1.751872E-2,2.2310656E-2,-7.7893543E-3,-3.2548275E-2,1.450681E-1,-5.2702397E-2,3.5251137E-2,-7.125487E-2,4.2711925E-2,-5.3620953E-2,3.3615404E-4],"categories":[],"categories_nodes":[],"categories_segments":[],"categories_sizes":[],"default_left":[0,0,0,0,0,0,0,0,0,0,0,0,0,0,0,0,0,0,0,0,0,0,0,0,0,0,0,0,0,0,0],"id":36,"left_children":[1,3,5,7,9,11,13,15,17,19,21,23,25,27,29,-1,-1,-1,-1,-1,-1,-1,-1,-1,-1,-1,-1,-1,-1,-1,-1],"loss_changes":[3.2302974E3,1.2156707E3,3.1304956E2,3.84094E2,6.4860754E2,1.341792E2,1.4754298E2,3.2908142E2,1.5070692E2,4.4719287E2,2.4991959E2,2.7873965E2,7.489795E1,1.0242684E2,1.5598116E2,0E0,0E0,0E0,0E0,0E0,0E0,0E0,0E0,0E0,0E0,0E0,0E0,0E0,0E0,0E0,0E0],"parents":[2147483647,0,0,1,1,2,2,3,3,4,4,5,5,6,6,7,7,8,8,9,9,10,10,11,11,12,12,13,13,14,14],"right_children":[2,4,6,8,10,12,14,16,18,20,22,24,26,28,30,-1,-1,-1,-1,-1,-1,-1,-1,-1,-1,-1,-1,-1,-1,-1,-1],"split_conditions":[8.345E-1,6.99E1,9.221666E0,7.85E1,3E0,7.665E1,-3.2E0,1.5028334E1,3.74E-1,1.396E1,7.63E1,8.7316666E1,1.4613338E1,3.2E1,4.6E1,1.9881425E-2,-2.6964039E-2,-2.1856697E-2,6.899436E-3,-1.8119913E-2,1.751872E-2,2.2310656E-2,-7.7893543E-3,-3.2548275E-2,1.450681E-1,-5.2702397E-2,3.5251137E-2,-7.125487E-2,4.2711925E-2,-5.3620953E-2,3.3615404E-4],"split_indices":[13,3,55,1,63,19,14,55,2,7,1,37,18,57,57,0,0,0,0,0,0,0,0,0,0,0,0,0,0,0,0],"split_type":[0,0,0,0,0,0,0,0,0,0,0,0,0,0,0,0,0,0,0,0,0,0,0,0,0,0,0,0,0,0,0],"sum_hessian":[3.0998383E4,2.6911406E4,4.0869763E3,1.5790219E4,1.11211875E4,3.3688076E3,7.1816864E2,1.3939622E4,1.8505962E3,7.889577E3,3.2316104E3,6.04596E2,2.7642117E3,1.7773647E2,5.404322E2,1.3554899E4,3.8472296E2,8.075768E2,1.0430194E3,6.881071E3,1.0085061E3,2.2350833E3,9.965271E2,5.826154E2,2.1980616E1,2.7404363E3,2.3775341E1,2.1625423E1,1.5611104E2,2.4196675E2,2.9846542E2],"tree_param":{"num_deleted":"0","num_feature":"67","num_nodes":"31","size_leaf_vector":"1"}},{"base_weights":[8.184275E-3,1.4682056E-1,-7.236274E-1,2.919419E-1,-1.4521119E-1,-8.865468E-1,-1.4508018E-1,4.0145493E-1,6.459192E-2,-4.9106675E-1,3.520756E-3,-5.241662E-1,-1.0344272E0,-8.8785946E-1,1.5117247E-1,2.1193556E-2,-3.6465336E-2,9.386857E-3,-1.6467242E-2,-4.7440045E-2,-1.5012472E-2,1.551632E-3,-7.218203E-2,-4.5197602E-2,-8.482623E-3,-5.249033E-2,9.745859E-2,-5.0317246E-2,7.29442E-2,1.9740256E-2,-2.8254587E-2],"categories":[],"categories_nodes":[],"categories_segments":[],"categories_sizes":[],"default_left":[0,0,0,0,0,0,0,0,0,0,0,0,0,0,0,0,0,0,0,0,0,0,0,0,0,0,0,0,0,0,0],"id":37,"left_children":[1,3,5,7,9,11,13,15,17,19,21,23,25,27,29,-1,-1,-1,-1,-1,-1,-1,-1,-1,-1,-1,-1,-1,-1,-1,-1],"loss_changes":[3.1068955E3,1.0911495E3,4.5959424E2,4.2819897E2,4.3968176E2,2.0338965E2,2.3622124E2,2.9453333E2,2.7136823E2,2.2422278E2,2.3805676E2,1.4861047E2,1.260105E2,8.656639E1,1.3421336E2,0E0,0E0,0E0,0E0,0E0,0E0,0E0,0E0,0E0,0E0,0E0,0E0,0E0,0E0,0E0,0E0],"parents":[2147483647,0,0,1,1,2,2,3,3,4,4,5,5,6,6,7,7,8,8,9,9,10,10,11,11,12,12,13,13,14,14],"right_children":[2,4,6,8,10,12,14,16,18,20,22,24,26,28,30,-1,-1,-1,-1,-1,-1,-1,-1,-1,-1,-1,-1,-1,-1,-1,-1],"split_conditions":[7.8833336E1,7.8333336E-1,9.4366665E0,6.99E1,3.3433333E-1,8.15E-1,-1.6E0,1.55633335E1,8.08E-1,7.9866667E0,1.6153334E1,2.7179286E0,5.45E-1,1.8383443E0,1E-1,2.1193556E-2,-3.6465336E-2,9.386857E-3,-1.6467242E-2,-4.7440045E-2,-1.5012472E-2,1.551632E-3,-7.218203E-2,-4.5197602E-2,-8.482623E-3,-5.249033E-2,9.745859E-2,-5.0317246E-2,7.29442E-2,1.9740256E-2,-2.8254587E-2],"split_indices":[16,13,55,3,22,0,44,55,0,55,40,54,2,42,29,0,0,0,0,0,0,0,0,0,0,0,0,0,0,0,0],"split_type":[0,0,0,0,0,0,0,0,0,0,0,0,0,0,0,0,0,0,0,0,0,0,0,0,0,0,0,0,0,0,0],"sum_hessian":[3.0621139E4,2.5744781E4,4.876358E3,1.7198309E4,8.546474E3,3.8044807E3,1.0718773E3,1.1606679E4,5.591629E3,2.5693962E3,5.977077E3,1.1039061E3,2.7005747E3,3.0504828E2,7.668291E2,1.1381674E4,2.250049E2,4.2603584E3,1.3312709E3,7.548011E2,1.8145951E3,5.866528E3,1.1054959E2,5.322085E2,5.716976E2,2.6873704E3,1.32042885E1,2.9093057E2,1.4117708E1,5.725341E2,1.9429497E2],"tree_param":{"num_deleted":"0","num_feature":"67","num_nodes":"31","size_leaf_vector":"1"}},{"base_weights":[3.6991728E-3,1.2524965E-1,-8.1446123E-1,2.5496826E-1,-2.2050363E-1,-8.741006E-1,4.5195517E-1,6.061891E-2,4.040465E-1,-3.661719E-1,1.3359201E-1,-2.4578784E-1,-9.645694E-1,-2.684636E-1,1.828842E0,-3.663978E-3,1.7880533E-2,2.1944076E-2,-3.0940114E-2,-2.7795812E-2,-5.5742534E-3,-3.140784E-3,2.3939539E-2,6.311964E-2,-2.7633283E-2,-5.0383758E-2,-1.7714588E-2,2.1096762E-2,-6.916239E-2,1.0140578E-1,-5.4103702E-2],"categories":[],"categories_nodes":[],"categories_segments":[],"categories_sizes":[],"default_left":[0,0,0,0,0,0,0,0,0,0,0,0,0,0,0,0,0,0,0,0,0,0,0,0,0,0,0,0,0,0,0],"id":38,"left_children":[1,3,5,7,9,11,13,15,17,19,21,23,25,27,29,-1,-1,-1,-1,-1,-1,-1,-1,-1,-1,-1,-1,-1,-1,-1,-1],"loss_changes":[3.0315027E3,1.1904072E3,2.9820215E2,5.59161E2,3.735584E2,2.1383179E2,1.7705058E2,3.3323663E2,3.894303E2,2.4789124E2,1.4318117E2,2.2070023E2,8.623462E1,9.119117E1,3.7734665E1,0E0,0E0,0E0,0E0,0E0,0E0,0E0,0E0,0E0,0E0,0E0,0E0,0E0,0E0,0E0,0E0],"parents":[2147483647,0,0,1,1,2,2,3,3,4,4,5,5,6,6,7,7,8,8,9,9,10,10,11,11,12,12,13,13,14,14],"right_children":[2,4,6,8,10,12,14,16,18,20,22,24,26,28,30,-1,-1,-1,-1,-1,-1,-1,-1,-1,-1,-1,-1,-1,-1,-1,-1],"split_conditions":[7.653333E1,7.56E1,4.08E-1,4.01E-1,6.21E1,7.9366666E-1,1.0973757E-1,3E0,5.086667E-1,1.04E1,4.19E-1,4.043101E-2,5.8733334E1,7.43E1,1.3420084E-1,-3.663978E-3,1.7880533E-2,2.1944076E-2,-3.0940114E-2,-2.7795812E-2,-5.5742534E-3,-3.140784E-3,2.3939539E-2,6.311964E-2,-2.7633283E-2,-5.0383758E-2,-1.7714588E-2,2.1096762E-2,-6.916239E-2,1.0140578E-1,-5.4103702E-2],"split_indices":[31,1,22,2,6,10,21,63,25,7,2,24,46,1,24,0,0,0,0,0,0,0,0,0,0,0,0,0,0,0,0],"split_type":[0,0,0,0,0,0,0,0,0,0,0,0,0,0,0,0,0,0,0,0,0,0,0,0,0,0,0,0,0,0,0],"sum_hessian":[3.0481332E4,2.6539346E4,3.9419863E3,1.9299053E4,7.240293E3,3.7649912E3,1.769951E2,8.378124E3,1.0920929E4,5.12991E3,2.1103826E3,4.7434488E2,3.2906465E3,1.1672627E2,6.0268837E1,5.7751543E3,2.60297E3,1.0561798E4,3.591305E2,2.9390815E3,2.1908289E3,1.3455966E3,7.647859E2,7.9672585E1,3.946723E2,3.0729438E3,2.1770258E2,7.24677E1,4.4258575E1,5.6691185E1,3.5776515E0],"tree_param":{"num_deleted":"0","num_feature":"67","num_nodes":"31","size_leaf_vector":"1"}},{"base_weights":[5.8589634E-5,1.0735146E-1,-8.3587533E-1,2.3312205E-1,-2.1958542E-1,-5.4516244E-1,-1.0824962E0,-2.1679034E-2,3.405587E-1,-3.4670934E-1,1.2328161E-1,1.7740963E-1,-7.081898E-1,1.009562E0,-1.0933274E0,-8.681657E-3,1.6186597E-2,8.417827E-4,2.068984E-2,-2.0648414E-2,2.0385342E-2,-3.2476824E-2,1.5384008E-2,-9.055209E-3,5.7598095E-2,-3.7323333E-2,6.8005465E-2,1.2721102E-1,-5.6289297E-2,-5.9683777E-2,-5.429743E-2],"categories":[],"categories_nodes":[],"categories_segments":[],"categories_sizes":[],"default_left":[0,0,0,0,0,0,0,0,0,0,0,0,0,0,0,0,0,0,0,0,0,0,0,0,0,0,0,0,0,0,0],"id":39,"left_children":[1,3,5,7,9,11,13,15,17,19,21,23,25,27,29,-1,-1,-1,-1,-1,-1,-1,-1,-1,-1,-1,-1,-1,-1,-1,-1],"loss_changes":[2.6928225E3,1.094168E3,2.4426733E2,5.2606287E2,3.222723E2,1.8501193E2,4.2949463E1,2.9925293E2,3.2047095E2,2.6977155E2,2.852656E2,1.0143592E2,1.0241211E2,3.5738445E1,6.4453125E-2,0E0,0E0,0E0,0E0,0E0,0E0,0E0,0E0,0E0,0E0,0E0,0E0,0E0,0E0,0E0,0E0],"parents":[2147483647,0,0,1,1,2,2,3,3,4,4,5,5,6,6,7,7,8,8,9,9,10,10,11,11,12,12,13,13,14,14],"right_children":[2,4,6,8,10,12,14,16,18,20,22,24,26,28,30,-1,-1,-1,-1,-1,-1,-1,-1,-1,-1,-1,-1,-1,-1,-1,-1],"split_conditions":[7.8433334E1,7.56E1,8.005E1,9.78E0,3E0,7.59E-1,7.47E-1,3E0,-6.1666667E-3,4.4726715E0,-1.45E-1,6.3361397E0,4.55E-2,-2.15E0,8.093333E-1,-8.681657E-3,1.6186597E-2,8.417827E-4,2.068984E-2,-2.0648414E-2,2.0385342E-2,-3.2476824E-2,1.5384008E-2,-9.055209E-3,5.7598095E-2,-3.7323333E-2,6.8005465E-2,1.2721102E-1,-5.6289297E-2,-5.9683777E-2,-5.429743E-2],"split_indices":[28,1,31,7,63,0,10,63,23,54,53,36,23,35,10,0,0,0,0,0,0,0,0,0,0,0,0,0,0,0,0],"split_type":[0,0,0,0,0,0,0,0,0,0,0,0,0,0,0,0,0,0,0,0,0,0,0,0,0,0,0,0,0,0,0],"sum_hessian":[3.0021746E4,2.6607518E4,3.4142273E3,1.921566E4,7.391858E3,1.5685061E3,1.8457212E3,5.6994395E3,1.3516221E4,5.392488E3,1.9993699E3,2.887254E2,1.2797808E3,9.031706E0,1.8366895E3,3.9585022E3,1.7409374E3,2.4939272E3,1.1022293E4,4.9575303E3,4.3495782E2,3.846734E2,1.6146965E3,2.11671E2,7.70544E1,1.2571544E3,2.2626356E1,5.1435776E0,3.8881283E0,1.14791916E2,1.7218975E3],"tree_param":{"num_deleted":"0","num_feature":"67","num_nodes":"31","size_leaf_vector":"1"}},{"base_weights":[2.9885198E-3,1.2280716E-1,-6.9351774E-1,-2.549769E-1,2.1759902E-1,-9.3802285E-1,-3.0516452E-1,-4.542806E-1,8.8596396E-2,3.910517E-1,8.098559E-2,-1.0750575E0,-5.467773E-1,-6.276969E-1,2.1957704E-1,-4.818426E-2,-1.6905224E-2,1.2916873E-2,-4.6083216E-2,2.3074627E-2,-2.0959683E-2,-2.8061217E-3,1.5928796E-2,-5.4275222E-2,1.5162057E-2,1.24211706E-1,-3.1535886E-2,-3.6508244E-2,9.8002516E-2,3.3192918E-2,-3.221638E-2],"categories":[],"categories_nodes":[],"categories_segments":[],"categories_sizes":[],"default_left":[0,0,0,0,0,0,0,0,0,0,0,0,0,0,0,0,0,0,0,0,0,0,0,0,0,0,0,0,0,0,0],"id":40,"left_children":[1,3,5,7,9,11,13,15,17,19,21,23,25,27,29,-1,-1,-1,-1,-1,-1,-1,-1,-1,-1,-1,-1,-1,-1,-1,-1],"loss_changes":[2.4961125E3,9.139394E2,4.1657446E2,3.5059E2,4.8339923E2,1.4382251E2,2.8745117E2,1.9142377E2,3.2267334E2,5.132051E2,3.718323E2,2.9038086E1,1.7984842E2,2.8028427E2,2.4874554E2,0E0,0E0,0E0,0E0,0E0,0E0,0E0,0E0,0E0,0E0,0E0,0E0,0E0,0E0,0E0,0E0],"parents":[2147483647,0,0,1,1,2,2,3,3,4,4,5,5,6,6,7,7,8,8,9,9,10,10,11,11,12,12,13,13,14,14],"right_children":[2,4,6,8,10,12,14,16,18,20,22,24,26,28,30,-1,-1,-1,-1,-1,-1,-1,-1,-1,-1,-1,-1,-1,-1,-1,-1],"split_conditions":[8.28E-1,8.583333E0,3.2066667E-1,1E0,6.83E1,8.111667E0,5.2E1,-2.8333333E-3,7.776667E1,1.4291667E1,5.2E1,1.018E1,3.2433334E1,5.3935356E0,1.1511501E1,-4.818426E-2,-1.6905224E-2,1.2916873E-2,-4.6083216E-2,2.3074627E-2,-2.0959683E-2,-2.8061217E-3,1.5928796E-2,-5.4275222E-2,1.5162057E-2,1.24211706E-1,-3.1535886E-2,-3.6508244E-2,9.8002516E-2,3.3192918E-2,-3.221638E-2],"split_indices":[13,52,22,64,16,55,57,11,16,55,57,52,46,54,48,0,0,0,0,0,0,0,0,0,0,0,0,0,0,0,0],"split_type":[0,0,0,0,0,0,0,0,0,0,0,0,0,0,0,0,0,0,0,0,0,0,0,0,0,0,0,0,0,0,0],"sum_hessian":[2.9907865E4,2.5518746E4,4.3891177E3,5.1183506E3,2.0400396E4,2.6925115E3,1.6966062E3,3.2390723E3,1.8792781E3,8.987481E3,1.1412915E4,1.9927859E3,6.9972546E2,1.0506364E3,6.459698E2,6.0017084E2,2.6389014E3,1.6095846E3,2.6969348E2,8.269022E3,7.1845886E2,7.237234E3,4.175681E3,1.9780057E3,1.4780116E1,1.8085333E1,6.8164014E2,1.0113091E3,3.9327335E1,4.267408E2,2.1922897E2],"tree_param":{"num_deleted":"0","num_feature":"67","num_nodes":"31","size_leaf_vector":"1"}},{"base_weights":[-9.771269E-4,1.2518172E-1,-6.796766E-1,3.449715E-1,-3.6336534E-2,-9.330163E-1,-3.593743E-1,3.9728034E-1,-1.5374659E-1,-1.7593749E-1,2.633129E-1,-1.023798E0,-5.075204E-1,-2.1708159E-1,-1.064307E0,2.9414197E-2,1.17540965E-2,-5.110172E-2,2.3442207E-2,-1.6189488E-2,3.664386E-3,1.431111E-2,-6.1653834E-2,2.061981E-2,-5.2731633E-2,-4.4674993E-2,7.1301125E-2,-9.704298E-5,-3.9039865E-2,-5.9419453E-2,8.0503635E-2],"categories":[],"categories_nodes":[],"categories_segments":[],"categories_sizes":[],"default_left":[0,0,0,0,0,0,0,0,0,0,0,0,0,0,0,0,0,0,0,0,0,0,0,0,0,0,0,0,0,0,0],"id":41,"left_children":[1,3,5,7,9,11,13,15,17,19,21,23,25,27,29,-1,-1,-1,-1,-1,-1,-1,-1,-1,-1,-1,-1,-1,-1,-1,-1],"loss_changes":[2.5339297E3,8.859163E2,3.7607422E2,2.7582507E2,6.017993E2,9.950513E1,2.054219E2,2.962699E2,5.43339E2,3.6165344E2,1.5709546E2,9.4900635E1,3.425707E2,2.0703922E2,1.16095215E2,0E0,0E0,0E0,0E0,0E0,0E0,0E0,0E0,0E0,0E0,0E0,0E0,0E0,0E0,0E0,0E0],"parents":[2147483647,0,0,1,1,2,2,3,3,4,4,5,5,6,6,7,7,8,8,9,9,10,10,11,11,12,12,13,13,14,14],"right_children":[2,4,6,8,10,12,14,16,18,20,22,24,26,28,30,-1,-1,-1,-1,-1,-1,-1,-1,-1,-1,-1,-1,-1,-1,-1,-1],"split_conditions":[7.8566666E1,7.49E-1,8.29E0,4.7533333E-1,4.08E-1,7.618836E-2,8.7E-1,6.48E1,6.0516666E1,1E0,8.103333E1,4.56E2,3.8066667E-1,7.4888806E0,1.6805456E1,2.9414197E-2,1.17540965E-2,-5.110172E-2,2.3442207E-2,-1.6189488E-2,3.664386E-3,1.431111E-2,-6.1653834E-2,2.061981E-2,-5.2731633E-2,-4.4674993E-2,7.1301125E-2,-9.704298E-5,-3.9039865E-2,-5.9419453E-2,8.0503635E-2],"split_indices":[16,0,52,25,22,12,0,28,31,65,34,60,22,27,15,0,0,0,0,0,0,0,0,0,0,0,0,0,0,0,0],"split_type":[0,0,0,0,0,0,0,0,0,0,0,0,0,0,0,0,0,0,0,0,0,0,0,0,0,0,0,0,0,0,0],"sum_hessian":[2.9591709E4,2.4953996E4,4.6377134E3,1.0569781E4,1.4384215E4,2.5884744E3,2.0492393E3,9.566578E3,1.00320264E3,9.812958E3,4.5712573E3,2.132161E3,4.5631335E2,1.7061548E3,3.430844E2,4.3919844E3,5.1745938E3,4.1866937E2,5.8453326E2,6.1589043E3,3.6540537E3,4.5031245E3,6.81328E1,4.4554585E1,2.0876064E3,3.8082904E2,7.5484314E1,1.2355961E3,4.7055875E2,3.2840326E2,1.4681145E1],"tree_param":{"num_deleted":"0","num_feature":"67","num_nodes":"31","size_leaf_vector":"1"}},{"base_weights":[7.4202577E-3,9.687664E-2,-8.295537E-1,-1.247499E-1,2.5480568E-1,-9.4147015E-1,-1.360161E-1,1.9602707E-1,-2.7931854E-1,3.816754E-1,6.343522E-2,-1.0992883E0,-6.4021605E-1,-2.6975143E-1,2.8262768E0,1.4488453E-2,-3.3878814E-2,-2.758357E-2,-6.121024E-3,-4.4393063E-2,2.0649374E-2,2.602083E-2,-1.5969748E-3,1.0072464E-1,-5.5682387E-2,-4.11906E-3,-5.168432E-2,4.3463305E-2,-3.0913372E-2,4.1158136E-2,2.8204098E-1],"categories":[],"categories_nodes":[],"categories_segments":[],"categories_sizes":[],"default_left":[0,0,0,0,0,0,0,0,0,0,0,0,0,0,0,0,0,0,0,0,0,0,0,0,0,0,0,0,0,0,0],"id":42,"left_children":[1,3,5,7,9,11,13,15,17,19,21,23,25,27,29,-1,-1,-1,-1,-1,-1,-1,-1,-1,-1,-1,-1,-1,-1,-1,-1],"loss_changes":[2.2111523E3,9.338816E2,2.2121094E2,5.50521E2,3.7822827E2,1.1602637E2,1.5819708E2,2.9588666E2,3.20097E2,3.7277283E2,2.7076602E2,7.422058E1,1.8570264E2,1.5183917E2,9.262691E1,0E0,0E0,0E0,0E0,0E0,0E0,0E0,0E0,0E0,0E0,0E0,0E0,0E0,0E0,0E0,0E0],"parents":[2147483647,0,0,1,1,2,2,3,3,4,4,5,5,6,6,7,7,8,8,9,9,10,10,11,11,12,12,13,13,14,14],"right_children":[2,4,6,8,10,12,14,16,18,20,22,24,26,28,30,-1,-1,-1,-1,-1,-1,-1,-1,-1,-1,-1,-1,-1,-1,-1,-1],"split_conditions":[8.4183335E-1,5.4866665E1,9.408334E0,6.58E1,7.67E-1,5.2E1,2.2580154E0,8.54E-1,-1.1666667E-1,5.3666668E1,7.2933334E1,9.3897104E-2,8.0433334E1,6.8433334E1,1.663E1,1.4488453E-2,-3.3878814E-2,-2.758357E-2,-6.121024E-3,-4.4393063E-2,2.0649374E-2,2.602083E-2,-1.5969748E-3,1.0072464E-1,-5.5682387E-2,-4.11906E-3,-5.168432E-2,4.3463305E-2,-3.0913372E-2,4.1158136E-2,2.8204098E-1],"split_indices":[13,46,55,28,0,57,39,0,47,28,34,42,16,28,5,0,0,0,0,0,0,0,0,0,0,0,0,0,0,0,0],"split_type":[0,0,0,0,0,0,0,0,0,0,0,0,0,0,0,0,0,0,0,0,0,0,0,0,0,0,0,0,0,0,0],"sum_hessian":[2.9530094E4,2.6679457E4,2.8506355E3,1.1101126E4,1.5578332E4,2.4542368E3,3.9639856E2,3.6096775E3,7.491448E3,9.367271E3,6.21106E3,1.6087902E3,8.454467E2,3.801455E2,1.6253067E1,3.2604802E3,3.4919742E2,2.737324E3,4.754124E3,2.2481653E2,9.142455E3,1.0716873E3,5.1393726E3,6.745598E0,1.6020446E3,3.5018637E2,4.9526035E2,8.871467E1,2.9143085E2,1.0250347E1,6.002719E0],"tree_param":{"num_deleted":"0","num_feature":"67","num_nodes":"31","size_leaf_vector":"1"}},{"base_weights":[4.2511197E-3,8.311074E-2,-9.667813E-1,-2.69287E-1,1.8928605E-1,-9.945085E-1,1.1576084E0,-4.7835296E-1,2.3705272E-2,6.218327E-4,3.1789073E-1,1.3282536E0,-1.0039699E0,1.9423865E0,-7.353554E-2,-2.6333911E-2,3.2018166E-2,9.985509E-3,-2.4563182E-2,-8.641764E-3,1.4342516E-2,1.720378E-2,-2.6271908E-2,1.340742E-1,-4.517504E-2,-5.0691385E-2,5.490322E-2,1.2753128E-1,6.0520805E-2],"categories":[],"categories_nodes":[],"categories_segments":[],"categories_sizes":[],"default_left":[0,0,0,0,0,0,0,0,0,0,0,0,0,0,0,0,0,0,0,0,0,0,0,0,0,0,0,0,0],"id":43,"left_children":[1,3,5,7,9,11,13,15,17,19,21,23,25,27,-1,-1,-1,-1,-1,-1,-1,-1,-1,-1,-1,-1,-1,-1,-1],"loss_changes":[2.235987E3,1.01052625E3,1.303418E2,3.830585E2,5.035611E2,4.892456E1,6.209469E1,1.9763141E2,2.3620393E2,4.177759E2,2.727113E2,3.025481E1,4.5816162E1,6.950821E0,0E0,0E0,0E0,0E0,0E0,0E0,0E0,0E0,0E0,0E0,0E0,0E0,0E0,0E0,0E0],"parents":[2147483647,0,0,1,1,2,2,3,3,4,4,5,5,6,6,7,7,8,8,9,9,10,10,11,11,12,12,13,13],"right_children":[2,4,6,8,10,12,14,16,18,20,22,24,26,28,-1,-1,-1,-1,-1,-1,-1,-1,-1,-1,-1,-1,-1,-1,-1],"split_conditions":[8.495E-1,3.28E-1,1.2025E1,5.52E1,1.064E1,7.913333E-1,1.16E1,4.806919E0,7.33E1,5.2E1,1.5028334E1,-1.0833334E0,7.064569E0,1.127E1,-7.353554E-2,-2.6333911E-2,3.2018166E-2,9.985509E-3,-2.4563182E-2,-8.641764E-3,1.4342516E-2,1.720378E-2,-2.6271908E-2,1.340742E-1,-4.517504E-2,-5.0691385E-2,5.490322E-2,1.2753128E-1,6.0520805E-2],"split_indices":[13,2,55,46,7,10,56,54,28,57,55,53,51,7,0,0,0,0,0,0,0,0,0,0,0,0,0,0,0],"split_type":[0,0,0,0,0,0,0,0,0,0,0,0,0,0,0,0,0,0,0,0,0,0,0,0,0,0,0,0,0],"sum_hessian":[2.9197814E4,2.7005549E4,2.1922642E3,6.2523506E3,2.07532E4,2.1645447E3,2.7719402E1,3.6483914E3,2.6039592E3,